digraph Tree {
node [shape=box, style="filled, rounded", color="black", fontname=helvetica] ;
edge [fontname=helvetica] ;
0 [label=<Satisfaction_Level &le; 0.465<br/>gini = 0.3628<br/>samples = 14999<br/>value = [11428, 3571]<br/>class = y<SUB>0</SUB>>, fillcolor="#e58139af"] ;
1 [label=<Number_Projects &le; 2.5<br/>gini = 0.4779<br/>samples = 4183<br/>value = [1652, 2531]<br/>class = y<SUB>1</SUB>>, fillcolor="#399de559"] ;
0 -> 1 [labeldistance=2.5, labelangle=45, headlabel="True"] ;
2 [label=<Last_Evaluation &le; 0.575<br/>gini = 0.2129<br/>samples = 1742<br/>value = [211, 1531]<br/>class = y<SUB>1</SUB>>, fillcolor="#399de5dc"] ;
1 -> 2 ;
3 [label=<Last_Evaluation &le; 0.445<br/>gini = 0.1043<br/>samples = 1612<br/>value = [89, 1523]<br/>class = y<SUB>1</SUB>>, fillcolor="#399de5f0"] ;
2 -> 3 ;
4 [label=<gini = 0.0<br/>samples = 38<br/>value = [38, 0]<br/>class = y<SUB>0</SUB>>, fillcolor="#e58139ff"] ;
3 -> 4 ;
5 [label=<Average_Montly_Hours &le; 162.0<br/>gini = 0.0627<br/>samples = 1574<br/>value = [51, 1523]<br/>class = y<SUB>1</SUB>>, fillcolor="#399de5f6"] ;
3 -> 5 ;
6 [label=<Average_Montly_Hours &le; 125.5<br/>gini = 0.0368<br/>samples = 1546<br/>value = [29, 1517]<br/>class = y<SUB>1</SUB>>, fillcolor="#399de5fa"] ;
5 -> 6 ;
7 [label=<gini = 0.0<br/>samples = 16<br/>value = [16, 0]<br/>class = y<SUB>0</SUB>>, fillcolor="#e58139ff"] ;
6 -> 7 ;
8 [label=<Satisfaction_Level &le; 0.315<br/>gini = 0.0168<br/>samples = 1530<br/>value = [13, 1517]<br/>class = y<SUB>1</SUB>>, fillcolor="#399de5fd"] ;
6 -> 8 ;
9 [label=<gini = 0.2188<br/>samples = 8<br/>value = [7, 1]<br/>class = y<SUB>0</SUB>>, fillcolor="#e58139db"] ;
8 -> 9 ;
10 [label=<Salary &le; 1.5<br/>gini = 0.0079<br/>samples = 1522<br/>value = [6, 1516]<br/>class = y<SUB>1</SUB>>, fillcolor="#399de5fe"] ;
8 -> 10 ;
11 [label=<gini = 0.0027<br/>samples = 1472<br/>value = [2, 1470]<br/>class = y<SUB>1</SUB>>, fillcolor="#399de5ff"] ;
10 -> 11 ;
12 [label=<gini = 0.1472<br/>samples = 50<br/>value = [4, 46]<br/>class = y<SUB>1</SUB>>, fillcolor="#399de5e9"] ;
10 -> 12 ;
13 [label=<gini = 0.3367<br/>samples = 28<br/>value = [22, 6]<br/>class = y<SUB>0</SUB>>, fillcolor="#e58139b9"] ;
5 -> 13 ;
14 [label=<gini = 0.1155<br/>samples = 130<br/>value = [122, 8]<br/>class = y<SUB>0</SUB>>, fillcolor="#e58139ee"] ;
2 -> 14 ;
15 [label=<Satisfaction_Level &le; 0.115<br/>gini = 0.4837<br/>samples = 2441<br/>value = [1441, 1000]<br/>class = y<SUB>0</SUB>>, fillcolor="#e581394e"] ;
1 -> 15 ;
16 [label=<gini = 0.0<br/>samples = 884<br/>value = [0, 884]<br/>class = y<SUB>1</SUB>>, fillcolor="#399de5ff"] ;
15 -> 16 ;
17 [label=<Number_Projects &le; 6.5<br/>gini = 0.1379<br/>samples = 1557<br/>value = [1441, 116]<br/>class = y<SUB>0</SUB>>, fillcolor="#e58139ea"] ;
15 -> 17 ;
18 [label=<Average_Montly_Hours &le; 289.0<br/>gini = 0.1224<br/>samples = 1542<br/>value = [1441, 101]<br/>class = y<SUB>0</SUB>>, fillcolor="#e58139ed"] ;
17 -> 18 ;
19 [label=<Last_Evaluation &le; 0.995<br/>gini = 0.1107<br/>samples = 1531<br/>value = [1441, 90]<br/>class = y<SUB>0</SUB>>, fillcolor="#e58139ef"] ;
18 -> 19 ;
20 [label=<Satisfaction_Level &le; 0.305<br/>gini = 0.1014<br/>samples = 1512<br/>value = [1431, 81]<br/>class = y<SUB>0</SUB>>, fillcolor="#e58139f1"] ;
19 -> 20 ;
21 [label=<gini = 0.0661<br/>samples = 964<br/>value = [931, 33]<br/>class = y<SUB>0</SUB>>, fillcolor="#e58139f6"] ;
20 -> 21 ;
22 [label=<gini = 0.1598<br/>samples = 548<br/>value = [500, 48]<br/>class = y<SUB>0</SUB>>, fillcolor="#e58139e7"] ;
20 -> 22 ;
23 [label=<gini = 0.4986<br/>samples = 19<br/>value = [10, 9]<br/>class = y<SUB>0</SUB>>, fillcolor="#e5813919"] ;
19 -> 23 ;
24 [label=<gini = 0.0<br/>samples = 11<br/>value = [0, 11]<br/>class = y<SUB>1</SUB>>, fillcolor="#399de5ff"] ;
18 -> 24 ;
25 [label=<gini = 0.0<br/>samples = 15<br/>value = [0, 15]<br/>class = y<SUB>1</SUB>>, fillcolor="#399de5ff"] ;
17 -> 25 ;
26 [label=<Time_Spend_Company &le; 4.5<br/>gini = 0.1738<br/>samples = 10816<br/>value = [9776, 1040]<br/>class = y<SUB>0</SUB>>, fillcolor="#e58139e4"] ;
0 -> 26 [labeldistance=2.5, labelangle=-45, headlabel="False"] ;
27 [label=<Average_Montly_Hours &le; 290.5<br/>gini = 0.0286<br/>samples = 8834<br/>value = [8706, 128]<br/>class = y<SUB>0</SUB>>, fillcolor="#e58139fb"] ;
26 -> 27 ;
28 [label=<Number_Projects &le; 6.5<br/>gini = 0.0266<br/>samples = 8825<br/>value = [8706, 119]<br/>class = y<SUB>0</SUB>>, fillcolor="#e58139fc"] ;
27 -> 28 ;
29 [label=<Number_Projects &le; 5.5<br/>gini = 0.0257<br/>samples = 8821<br/>value = [8706, 115]<br/>class = y<SUB>0</SUB>>, fillcolor="#e58139fc"] ;
28 -> 29 ;
30 [label=<Time_Spend_Company &le; 3.5<br/>gini = 0.0228<br/>samples = 8668<br/>value = [8568, 100]<br/>class = y<SUB>0</SUB>>, fillcolor="#e58139fc"] ;
29 -> 30 ;
31 [label=<Number_Projects &le; 2.5<br/>gini = 0.0151<br/>samples = 7352<br/>value = [7296, 56]<br/>class = y<SUB>0</SUB>>, fillcolor="#e58139fd"] ;
30 -> 31 ;
32 [label=<gini = 0.0819<br/>samples = 421<br/>value = [403, 18]<br/>class = y<SUB>0</SUB>>, fillcolor="#e58139f4"] ;
31 -> 32 ;
33 [label=<Satisfaction_Level &le; 0.475<br/>gini = 0.0109<br/>samples = 6931<br/>value = [6893, 38]<br/>class = y<SUB>0</SUB>>, fillcolor="#e58139fe"] ;
31 -> 33 ;
34 [label=<gini = 0.1107<br/>samples = 17<br/>value = [16, 1]<br/>class = y<SUB>0</SUB>>, fillcolor="#e58139ef"] ;
33 -> 34 ;
35 [label=<Satisfaction_Level &le; 0.905<br/>gini = 0.0106<br/>samples = 6914<br/>value = [6877, 37]<br/>class = y<SUB>0</SUB>>, fillcolor="#e58139fe"] ;
33 -> 35 ;
36 [label=<Department &le; 0.5<br/>gini = 0.0129<br/>samples = 5715<br/>value = [5678, 37]<br/>class = y<SUB>0</SUB>>, fillcolor="#e58139fd"] ;
35 -> 36 ;
37 [label=<Satisfaction_Level &le; 0.805<br/>gini = 0.0223<br/>samples = 1505<br/>value = [1488, 17]<br/>class = y<SUB>0</SUB>>, fillcolor="#e58139fc"] ;
36 -> 37 ;
38 [label=<gini = 0.0286<br/>samples = 1173<br/>value = [1156, 17]<br/>class = y<SUB>0</SUB>>, fillcolor="#e58139fb"] ;
37 -> 38 ;
39 [label=<gini = 0.0<br/>samples = 332<br/>value = [332, 0]<br/>class = y<SUB>0</SUB>>, fillcolor="#e58139ff"] ;
37 -> 39 ;
40 [label=<Promotion_Last_5_Years &le; 0.5<br/>gini = 0.0095<br/>samples = 4210<br/>value = [4190, 20]<br/>class = y<SUB>0</SUB>>, fillcolor="#e58139fe"] ;
36 -> 40 ;
41 [label=<Satisfaction_Level &le; 0.845<br/>gini = 0.0082<br/>samples = 4133<br/>value = [4116, 17]<br/>class = y<SUB>0</SUB>>, fillcolor="#e58139fe"] ;
40 -> 41 ;
42 [label=<Satisfaction_Level &le; 0.635<br/>gini = 0.0055<br/>samples = 3603<br/>value = [3593, 10]<br/>class = y<SUB>0</SUB>>, fillcolor="#e58139fe"] ;
41 -> 42 ;
43 [label=<Department &le; 7.5<br/>gini = 0.0128<br/>samples = 1555<br/>value = [1545, 10]<br/>class = y<SUB>0</SUB>>, fillcolor="#e58139fd"] ;
42 -> 43 ;
44 [label=<gini = 0.0088<br/>samples = 1361<br/>value = [1355, 6]<br/>class = y<SUB>0</SUB>>, fillcolor="#e58139fe"] ;
43 -> 44 ;
45 [label=<gini = 0.0404<br/>samples = 194<br/>value = [190, 4]<br/>class = y<SUB>0</SUB>>, fillcolor="#e58139fa"] ;
43 -> 45 ;
46 [label=<gini = 0.0<br/>samples = 2048<br/>value = [2048, 0]<br/>class = y<SUB>0</SUB>>, fillcolor="#e58139ff"] ;
42 -> 46 ;
47 [label=<gini = 0.0261<br/>samples = 530<br/>value = [523, 7]<br/>class = y<SUB>0</SUB>>, fillcolor="#e58139fc"] ;
41 -> 47 ;
48 [label=<gini = 0.0749<br/>samples = 77<br/>value = [74, 3]<br/>class = y<SUB>0</SUB>>, fillcolor="#e58139f5"] ;
40 -> 48 ;
49 [label=<gini = 0.0<br/>samples = 1199<br/>value = [1199, 0]<br/>class = y<SUB>0</SUB>>, fillcolor="#e58139ff"] ;
35 -> 49 ;
50 [label=<gini = 0.0646<br/>samples = 1316<br/>value = [1272, 44]<br/>class = y<SUB>0</SUB>>, fillcolor="#e58139f6"] ;
30 -> 50 ;
51 [label=<gini = 0.1769<br/>samples = 153<br/>value = [138, 15]<br/>class = y<SUB>0</SUB>>, fillcolor="#e58139e3"] ;
29 -> 51 ;
52 [label=<gini = 0.0<br/>samples = 4<br/>value = [0, 4]<br/>class = y<SUB>1</SUB>>, fillcolor="#399de5ff"] ;
28 -> 52 ;
53 [label=<gini = 0.0<br/>samples = 9<br/>value = [0, 9]<br/>class = y<SUB>1</SUB>>, fillcolor="#399de5ff"] ;
27 -> 53 ;
54 [label=<Last_Evaluation &le; 0.805<br/>gini = 0.4968<br/>samples = 1982<br/>value = [1070, 912]<br/>class = y<SUB>0</SUB>>, fillcolor="#e5813926"] ;
26 -> 54 ;
55 [label=<gini = 0.0767<br/>samples = 751<br/>value = [721, 30]<br/>class = y<SUB>0</SUB>>, fillcolor="#e58139f4"] ;
54 -> 55 ;
56 [label=<gini = 0.4063<br/>samples = 1231<br/>value = [349, 882]<br/>class = y<SUB>1</SUB>>, fillcolor="#399de59a"] ;
54 -> 56 ;
}
