digraph Tree {
node [shape=box, style="filled, rounded", color="black", fontname=helvetica] ;
edge [fontname=helvetica] ;
0 [label=<Satisfaction_Level &le; 0.465<br/>gini = 0.3628<br/>samples = 14999<br/>value = [11428, 3571]<br/>class = y<SUB>0</SUB>>, fillcolor="#e58139af"] ;
1 [label=<Number_Projects &le; 2.5<br/>gini = 0.4779<br/>samples = 4183<br/>value = [1652, 2531]<br/>class = y<SUB>1</SUB>>, fillcolor="#399de559"] ;
0 -> 1 [labeldistance=2.5, labelangle=45, headlabel="True"] ;
2 [label=<Last_Evaluation &le; 0.575<br/>gini = 0.2129<br/>samples = 1742<br/>value = [211, 1531]<br/>class = y<SUB>1</SUB>>, fillcolor="#399de5dc"] ;
1 -> 2 ;
3 [label=<Last_Evaluation &le; 0.445<br/>gini = 0.1043<br/>samples = 1612<br/>value = [89, 1523]<br/>class = y<SUB>1</SUB>>, fillcolor="#399de5f0"] ;
2 -> 3 ;
4 [label=<gini = 0.0<br/>samples = 38<br/>value = [38, 0]<br/>class = y<SUB>0</SUB>>, fillcolor="#e58139ff"] ;
3 -> 4 ;
5 [label=<Average_Montly_Hours &le; 162.0<br/>gini = 0.0627<br/>samples = 1574<br/>value = [51, 1523]<br/>class = y<SUB>1</SUB>>, fillcolor="#399de5f6"] ;
3 -> 5 ;
6 [label=<Average_Montly_Hours &le; 125.5<br/>gini = 0.0368<br/>samples = 1546<br/>value = [29, 1517]<br/>class = y<SUB>1</SUB>>, fillcolor="#399de5fa"] ;
5 -> 6 ;
7 [label=<gini = 0.0<br/>samples = 16<br/>value = [16, 0]<br/>class = y<SUB>0</SUB>>, fillcolor="#e58139ff"] ;
6 -> 7 ;
8 [label=<Satisfaction_Level &le; 0.315<br/>gini = 0.0168<br/>samples = 1530<br/>value = [13, 1517]<br/>class = y<SUB>1</SUB>>, fillcolor="#399de5fd"] ;
6 -> 8 ;
9 [label=<Average_Montly_Hours &le; 141.5<br/>gini = 0.2188<br/>samples = 8<br/>value = [7, 1]<br/>class = y<SUB>0</SUB>>, fillcolor="#e58139db"] ;
8 -> 9 ;
10 [label=<gini = 0.0<br/>samples = 1<br/>value = [0, 1]<br/>class = y<SUB>1</SUB>>, fillcolor="#399de5ff"] ;
9 -> 10 ;
11 [label=<gini = 0.0<br/>samples = 7<br/>value = [7, 0]<br/>class = y<SUB>0</SUB>>, fillcolor="#e58139ff"] ;
9 -> 11 ;
12 [label=<Salary &le; 1.5<br/>gini = 0.0079<br/>samples = 1522<br/>value = [6, 1516]<br/>class = y<SUB>1</SUB>>, fillcolor="#399de5fe"] ;
8 -> 12 ;
13 [label=<Last_Evaluation &le; 0.565<br/>gini = 0.0027<br/>samples = 1472<br/>value = [2, 1470]<br/>class = y<SUB>1</SUB>>, fillcolor="#399de5ff"] ;
12 -> 13 ;
14 [label=<Average_Montly_Hours &le; 150.5<br/>gini = 0.0015<br/>samples = 1358<br/>value = [1, 1357]<br/>class = y<SUB>1</SUB>>, fillcolor="#399de5ff"] ;
13 -> 14 ;
15 [label=<gini = 0.0<br/>samples = 942<br/>value = [0, 942]<br/>class = y<SUB>1</SUB>>, fillcolor="#399de5ff"] ;
14 -> 15 ;
16 [label=<Average_Montly_Hours &le; 151.5<br/>gini = 0.0048<br/>samples = 416<br/>value = [1, 415]<br/>class = y<SUB>1</SUB>>, fillcolor="#399de5fe"] ;
14 -> 16 ;
17 [label=<Department &le; 0.5<br/>gini = 0.0384<br/>samples = 51<br/>value = [1, 50]<br/>class = y<SUB>1</SUB>>, fillcolor="#399de5fa"] ;
16 -> 17 ;
18 [label=<Satisfaction_Level &le; 0.415<br/>gini = 0.142<br/>samples = 13<br/>value = [1, 12]<br/>class = y<SUB>1</SUB>>, fillcolor="#399de5ea"] ;
17 -> 18 ;
19 [label=<gini = 0.0<br/>samples = 11<br/>value = [0, 11]<br/>class = y<SUB>1</SUB>>, fillcolor="#399de5ff"] ;
18 -> 19 ;
20 [label=<Salary &le; 0.5<br/>gini = 0.5<br/>samples = 2<br/>value = [1, 1]<br/>class = y<SUB>0</SUB>>, fillcolor="#e5813900"] ;
18 -> 20 ;
21 [label=<gini = 0.0<br/>samples = 1<br/>value = [1, 0]<br/>class = y<SUB>0</SUB>>, fillcolor="#e58139ff"] ;
20 -> 21 ;
22 [label=<gini = 0.0<br/>samples = 1<br/>value = [0, 1]<br/>class = y<SUB>1</SUB>>, fillcolor="#399de5ff"] ;
20 -> 22 ;
23 [label=<gini = 0.0<br/>samples = 38<br/>value = [0, 38]<br/>class = y<SUB>1</SUB>>, fillcolor="#399de5ff"] ;
17 -> 23 ;
24 [label=<gini = 0.0<br/>samples = 365<br/>value = [0, 365]<br/>class = y<SUB>1</SUB>>, fillcolor="#399de5ff"] ;
16 -> 24 ;
25 [label=<Average_Montly_Hours &le; 132.5<br/>gini = 0.0174<br/>samples = 114<br/>value = [1, 113]<br/>class = y<SUB>1</SUB>>, fillcolor="#399de5fd"] ;
13 -> 25 ;
26 [label=<Average_Montly_Hours &le; 131.5<br/>gini = 0.095<br/>samples = 20<br/>value = [1, 19]<br/>class = y<SUB>1</SUB>>, fillcolor="#399de5f2"] ;
25 -> 26 ;
27 [label=<gini = 0.0<br/>samples = 19<br/>value = [0, 19]<br/>class = y<SUB>1</SUB>>, fillcolor="#399de5ff"] ;
26 -> 27 ;
28 [label=<gini = 0.0<br/>samples = 1<br/>value = [1, 0]<br/>class = y<SUB>0</SUB>>, fillcolor="#e58139ff"] ;
26 -> 28 ;
29 [label=<gini = 0.0<br/>samples = 94<br/>value = [0, 94]<br/>class = y<SUB>1</SUB>>, fillcolor="#399de5ff"] ;
25 -> 29 ;
30 [label=<Satisfaction_Level &le; 0.375<br/>gini = 0.1472<br/>samples = 50<br/>value = [4, 46]<br/>class = y<SUB>1</SUB>>, fillcolor="#399de5e9"] ;
12 -> 30 ;
31 [label=<Department &le; 4.0<br/>gini = 0.4628<br/>samples = 11<br/>value = [4, 7]<br/>class = y<SUB>1</SUB>>, fillcolor="#399de56d"] ;
30 -> 31 ;
32 [label=<Last_Evaluation &le; 0.495<br/>gini = 0.32<br/>samples = 5<br/>value = [4, 1]<br/>class = y<SUB>0</SUB>>, fillcolor="#e58139bf"] ;
31 -> 32 ;
33 [label=<Satisfaction_Level &le; 0.365<br/>gini = 0.5<br/>samples = 2<br/>value = [1, 1]<br/>class = y<SUB>0</SUB>>, fillcolor="#e5813900"] ;
32 -> 33 ;
34 [label=<gini = 0.0<br/>samples = 1<br/>value = [1, 0]<br/>class = y<SUB>0</SUB>>, fillcolor="#e58139ff"] ;
33 -> 34 ;
35 [label=<gini = 0.0<br/>samples = 1<br/>value = [0, 1]<br/>class = y<SUB>1</SUB>>, fillcolor="#399de5ff"] ;
33 -> 35 ;
36 [label=<gini = 0.0<br/>samples = 3<br/>value = [3, 0]<br/>class = y<SUB>0</SUB>>, fillcolor="#e58139ff"] ;
32 -> 36 ;
37 [label=<gini = 0.0<br/>samples = 6<br/>value = [0, 6]<br/>class = y<SUB>1</SUB>>, fillcolor="#399de5ff"] ;
31 -> 37 ;
38 [label=<gini = 0.0<br/>samples = 39<br/>value = [0, 39]<br/>class = y<SUB>1</SUB>>, fillcolor="#399de5ff"] ;
30 -> 38 ;
39 [label=<Average_Montly_Hours &le; 240.5<br/>gini = 0.3367<br/>samples = 28<br/>value = [22, 6]<br/>class = y<SUB>0</SUB>>, fillcolor="#e58139b9"] ;
5 -> 39 ;
40 [label=<gini = 0.0<br/>samples = 19<br/>value = [19, 0]<br/>class = y<SUB>0</SUB>>, fillcolor="#e58139ff"] ;
39 -> 40 ;
41 [label=<Average_Montly_Hours &le; 258.0<br/>gini = 0.4444<br/>samples = 9<br/>value = [3, 6]<br/>class = y<SUB>1</SUB>>, fillcolor="#399de57f"] ;
39 -> 41 ;
42 [label=<gini = 0.0<br/>samples = 6<br/>value = [0, 6]<br/>class = y<SUB>1</SUB>>, fillcolor="#399de5ff"] ;
41 -> 42 ;
43 [label=<gini = 0.0<br/>samples = 3<br/>value = [3, 0]<br/>class = y<SUB>0</SUB>>, fillcolor="#e58139ff"] ;
41 -> 43 ;
44 [label=<Average_Montly_Hours &le; 279.0<br/>gini = 0.1155<br/>samples = 130<br/>value = [122, 8]<br/>class = y<SUB>0</SUB>>, fillcolor="#e58139ee"] ;
2 -> 44 ;
45 [label=<Last_Evaluation &le; 0.775<br/>gini = 0.062<br/>samples = 125<br/>value = [121, 4]<br/>class = y<SUB>0</SUB>>, fillcolor="#e58139f7"] ;
44 -> 45 ;
46 [label=<gini = 0.0<br/>samples = 79<br/>value = [79, 0]<br/>class = y<SUB>0</SUB>>, fillcolor="#e58139ff"] ;
45 -> 46 ;
47 [label=<Last_Evaluation &le; 0.785<br/>gini = 0.1588<br/>samples = 46<br/>value = [42, 4]<br/>class = y<SUB>0</SUB>>, fillcolor="#e58139e7"] ;
45 -> 47 ;
48 [label=<Time_Spend_Company &le; 5.0<br/>gini = 0.375<br/>samples = 4<br/>value = [1, 3]<br/>class = y<SUB>1</SUB>>, fillcolor="#399de5aa"] ;
47 -> 48 ;
49 [label=<gini = 0.0<br/>samples = 3<br/>value = [0, 3]<br/>class = y<SUB>1</SUB>>, fillcolor="#399de5ff"] ;
48 -> 49 ;
50 [label=<gini = 0.0<br/>samples = 1<br/>value = [1, 0]<br/>class = y<SUB>0</SUB>>, fillcolor="#e58139ff"] ;
48 -> 50 ;
51 [label=<Satisfaction_Level &le; 0.455<br/>gini = 0.0465<br/>samples = 42<br/>value = [41, 1]<br/>class = y<SUB>0</SUB>>, fillcolor="#e58139f9"] ;
47 -> 51 ;
52 [label=<gini = 0.0<br/>samples = 39<br/>value = [39, 0]<br/>class = y<SUB>0</SUB>>, fillcolor="#e58139ff"] ;
51 -> 52 ;
53 [label=<Salary &le; 0.5<br/>gini = 0.4444<br/>samples = 3<br/>value = [2, 1]<br/>class = y<SUB>0</SUB>>, fillcolor="#e581397f"] ;
51 -> 53 ;
54 [label=<gini = 0.0<br/>samples = 2<br/>value = [2, 0]<br/>class = y<SUB>0</SUB>>, fillcolor="#e58139ff"] ;
53 -> 54 ;
55 [label=<gini = 0.0<br/>samples = 1<br/>value = [0, 1]<br/>class = y<SUB>1</SUB>>, fillcolor="#399de5ff"] ;
53 -> 55 ;
56 [label=<Satisfaction_Level &le; 0.415<br/>gini = 0.32<br/>samples = 5<br/>value = [1, 4]<br/>class = y<SUB>1</SUB>>, fillcolor="#399de5bf"] ;
44 -> 56 ;
57 [label=<gini = 0.0<br/>samples = 4<br/>value = [0, 4]<br/>class = y<SUB>1</SUB>>, fillcolor="#399de5ff"] ;
56 -> 57 ;
58 [label=<gini = 0.0<br/>samples = 1<br/>value = [1, 0]<br/>class = y<SUB>0</SUB>>, fillcolor="#e58139ff"] ;
56 -> 58 ;
59 [label=<Satisfaction_Level &le; 0.115<br/>gini = 0.4837<br/>samples = 2441<br/>value = [1441, 1000]<br/>class = y<SUB>0</SUB>>, fillcolor="#e581394e"] ;
1 -> 59 ;
60 [label=<gini = 0.0<br/>samples = 884<br/>value = [0, 884]<br/>class = y<SUB>1</SUB>>, fillcolor="#399de5ff"] ;
59 -> 60 ;
61 [label=<Number_Projects &le; 6.5<br/>gini = 0.1379<br/>samples = 1557<br/>value = [1441, 116]<br/>class = y<SUB>0</SUB>>, fillcolor="#e58139ea"] ;
59 -> 61 ;
62 [label=<Average_Montly_Hours &le; 289.0<br/>gini = 0.1224<br/>samples = 1542<br/>value = [1441, 101]<br/>class = y<SUB>0</SUB>>, fillcolor="#e58139ed"] ;
61 -> 62 ;
63 [label=<Last_Evaluation &le; 0.995<br/>gini = 0.1107<br/>samples = 1531<br/>value = [1441, 90]<br/>class = y<SUB>0</SUB>>, fillcolor="#e58139ef"] ;
62 -> 63 ;
64 [label=<Satisfaction_Level &le; 0.305<br/>gini = 0.1014<br/>samples = 1512<br/>value = [1431, 81]<br/>class = y<SUB>0</SUB>>, fillcolor="#e58139f1"] ;
63 -> 64 ;
65 [label=<Satisfaction_Level &le; 0.145<br/>gini = 0.0661<br/>samples = 964<br/>value = [931, 33]<br/>class = y<SUB>0</SUB>>, fillcolor="#e58139f6"] ;
64 -> 65 ;
66 [label=<Time_Spend_Company &le; 2.5<br/>gini = 0.1537<br/>samples = 143<br/>value = [131, 12]<br/>class = y<SUB>0</SUB>>, fillcolor="#e58139e8"] ;
65 -> 66 ;
67 [label=<Number_Projects &le; 3.5<br/>gini = 0.5<br/>samples = 10<br/>value = [5, 5]<br/>class = y<SUB>0</SUB>>, fillcolor="#e5813900"] ;
66 -> 67 ;
68 [label=<gini = 0.0<br/>samples = 3<br/>value = [3, 0]<br/>class = y<SUB>0</SUB>>, fillcolor="#e58139ff"] ;
67 -> 68 ;
69 [label=<Average_Montly_Hours &le; 150.5<br/>gini = 0.4082<br/>samples = 7<br/>value = [2, 5]<br/>class = y<SUB>1</SUB>>, fillcolor="#399de599"] ;
67 -> 69 ;
70 [label=<Satisfaction_Level &le; 0.125<br/>gini = 0.4444<br/>samples = 3<br/>value = [2, 1]<br/>class = y<SUB>0</SUB>>, fillcolor="#e581397f"] ;
69 -> 70 ;
71 [label=<gini = 0.0<br/>samples = 1<br/>value = [0, 1]<br/>class = y<SUB>1</SUB>>, fillcolor="#399de5ff"] ;
70 -> 71 ;
72 [label=<gini = 0.0<br/>samples = 2<br/>value = [2, 0]<br/>class = y<SUB>0</SUB>>, fillcolor="#e58139ff"] ;
70 -> 72 ;
73 [label=<gini = 0.0<br/>samples = 4<br/>value = [0, 4]<br/>class = y<SUB>1</SUB>>, fillcolor="#399de5ff"] ;
69 -> 73 ;
74 [label=<Work_Accident &le; 0.5<br/>gini = 0.0997<br/>samples = 133<br/>value = [126, 7]<br/>class = y<SUB>0</SUB>>, fillcolor="#e58139f1"] ;
66 -> 74 ;
75 [label=<Satisfaction_Level &le; 0.135<br/>gini = 0.0367<br/>samples = 107<br/>value = [105, 2]<br/>class = y<SUB>0</SUB>>, fillcolor="#e58139fa"] ;
74 -> 75 ;
76 [label=<gini = 0.0<br/>samples = 61<br/>value = [61, 0]<br/>class = y<SUB>0</SUB>>, fillcolor="#e58139ff"] ;
75 -> 76 ;
77 [label=<Time_Spend_Company &le; 3.5<br/>gini = 0.0832<br/>samples = 46<br/>value = [44, 2]<br/>class = y<SUB>0</SUB>>, fillcolor="#e58139f3"] ;
75 -> 77 ;
78 [label=<Average_Montly_Hours &le; 231.0<br/>gini = 0.375<br/>samples = 4<br/>value = [3, 1]<br/>class = y<SUB>0</SUB>>, fillcolor="#e58139aa"] ;
77 -> 78 ;
79 [label=<gini = 0.0<br/>samples = 3<br/>value = [3, 0]<br/>class = y<SUB>0</SUB>>, fillcolor="#e58139ff"] ;
78 -> 79 ;
80 [label=<gini = 0.0<br/>samples = 1<br/>value = [0, 1]<br/>class = y<SUB>1</SUB>>, fillcolor="#399de5ff"] ;
78 -> 80 ;
81 [label=<Last_Evaluation &le; 0.56<br/>gini = 0.0465<br/>samples = 42<br/>value = [41, 1]<br/>class = y<SUB>0</SUB>>, fillcolor="#e58139f9"] ;
77 -> 81 ;
82 [label=<Last_Evaluation &le; 0.535<br/>gini = 0.2449<br/>samples = 7<br/>value = [6, 1]<br/>class = y<SUB>0</SUB>>, fillcolor="#e58139d4"] ;
81 -> 82 ;
83 [label=<gini = 0.0<br/>samples = 6<br/>value = [6, 0]<br/>class = y<SUB>0</SUB>>, fillcolor="#e58139ff"] ;
82 -> 83 ;
84 [label=<gini = 0.0<br/>samples = 1<br/>value = [0, 1]<br/>class = y<SUB>1</SUB>>, fillcolor="#399de5ff"] ;
82 -> 84 ;
85 [label=<gini = 0.0<br/>samples = 35<br/>value = [35, 0]<br/>class = y<SUB>0</SUB>>, fillcolor="#e58139ff"] ;
81 -> 85 ;
86 [label=<Department &le; 1.5<br/>gini = 0.3107<br/>samples = 26<br/>value = [21, 5]<br/>class = y<SUB>0</SUB>>, fillcolor="#e58139c2"] ;
74 -> 86 ;
87 [label=<Number_Projects &le; 4.5<br/>gini = 0.4734<br/>samples = 13<br/>value = [8, 5]<br/>class = y<SUB>0</SUB>>, fillcolor="#e5813960"] ;
86 -> 87 ;
88 [label=<Last_Evaluation &le; 0.78<br/>gini = 0.4688<br/>samples = 8<br/>value = [3, 5]<br/>class = y<SUB>1</SUB>>, fillcolor="#399de566"] ;
87 -> 88 ;
89 [label=<gini = 0.0<br/>samples = 5<br/>value = [0, 5]<br/>class = y<SUB>1</SUB>>, fillcolor="#399de5ff"] ;
88 -> 89 ;
90 [label=<gini = 0.0<br/>samples = 3<br/>value = [3, 0]<br/>class = y<SUB>0</SUB>>, fillcolor="#e58139ff"] ;
88 -> 90 ;
91 [label=<gini = 0.0<br/>samples = 5<br/>value = [5, 0]<br/>class = y<SUB>0</SUB>>, fillcolor="#e58139ff"] ;
87 -> 91 ;
92 [label=<gini = 0.0<br/>samples = 13<br/>value = [13, 0]<br/>class = y<SUB>0</SUB>>, fillcolor="#e58139ff"] ;
86 -> 92 ;
93 [label=<Last_Evaluation &le; 0.465<br/>gini = 0.0498<br/>samples = 821<br/>value = [800, 21]<br/>class = y<SUB>0</SUB>>, fillcolor="#e58139f8"] ;
65 -> 93 ;
94 [label=<Last_Evaluation &le; 0.445<br/>gini = 0.1404<br/>samples = 79<br/>value = [73, 6]<br/>class = y<SUB>0</SUB>>, fillcolor="#e58139ea"] ;
93 -> 94 ;
95 [label=<gini = 0.0<br/>samples = 63<br/>value = [63, 0]<br/>class = y<SUB>0</SUB>>, fillcolor="#e58139ff"] ;
94 -> 95 ;
96 [label=<Average_Montly_Hours &le; 223.0<br/>gini = 0.4688<br/>samples = 16<br/>value = [10, 6]<br/>class = y<SUB>0</SUB>>, fillcolor="#e5813966"] ;
94 -> 96 ;
97 [label=<Average_Montly_Hours &le; 208.0<br/>gini = 0.375<br/>samples = 8<br/>value = [2, 6]<br/>class = y<SUB>1</SUB>>, fillcolor="#399de5aa"] ;
96 -> 97 ;
98 [label=<gini = 0.0<br/>samples = 2<br/>value = [2, 0]<br/>class = y<SUB>0</SUB>>, fillcolor="#e58139ff"] ;
97 -> 98 ;
99 [label=<gini = 0.0<br/>samples = 6<br/>value = [0, 6]<br/>class = y<SUB>1</SUB>>, fillcolor="#399de5ff"] ;
97 -> 99 ;
100 [label=<gini = 0.0<br/>samples = 8<br/>value = [8, 0]<br/>class = y<SUB>0</SUB>>, fillcolor="#e58139ff"] ;
96 -> 100 ;
101 [label=<Satisfaction_Level &le; 0.175<br/>gini = 0.0396<br/>samples = 742<br/>value = [727, 15]<br/>class = y<SUB>0</SUB>>, fillcolor="#e58139fa"] ;
93 -> 101 ;
102 [label=<Average_Montly_Hours &le; 231.0<br/>gini = 0.0761<br/>samples = 202<br/>value = [194, 8]<br/>class = y<SUB>0</SUB>>, fillcolor="#e58139f4"] ;
101 -> 102 ;
103 [label=<Average_Montly_Hours &le; 139.5<br/>gini = 0.0298<br/>samples = 132<br/>value = [130, 2]<br/>class = y<SUB>0</SUB>>, fillcolor="#e58139fb"] ;
102 -> 103 ;
104 [label=<Average_Montly_Hours &le; 138.0<br/>gini = 0.1528<br/>samples = 12<br/>value = [11, 1]<br/>class = y<SUB>0</SUB>>, fillcolor="#e58139e8"] ;
103 -> 104 ;
105 [label=<gini = 0.0<br/>samples = 11<br/>value = [11, 0]<br/>class = y<SUB>0</SUB>>, fillcolor="#e58139ff"] ;
104 -> 105 ;
106 [label=<gini = 0.0<br/>samples = 1<br/>value = [0, 1]<br/>class = y<SUB>1</SUB>>, fillcolor="#399de5ff"] ;
104 -> 106 ;
107 [label=<Number_Projects &le; 3.5<br/>gini = 0.0165<br/>samples = 120<br/>value = [119, 1]<br/>class = y<SUB>0</SUB>>, fillcolor="#e58139fd"] ;
103 -> 107 ;
108 [label=<Satisfaction_Level &le; 0.165<br/>gini = 0.095<br/>samples = 20<br/>value = [19, 1]<br/>class = y<SUB>0</SUB>>, fillcolor="#e58139f2"] ;
107 -> 108 ;
109 [label=<gini = 0.0<br/>samples = 16<br/>value = [16, 0]<br/>class = y<SUB>0</SUB>>, fillcolor="#e58139ff"] ;
108 -> 109 ;
110 [label=<Last_Evaluation &le; 0.8<br/>gini = 0.375<br/>samples = 4<br/>value = [3, 1]<br/>class = y<SUB>0</SUB>>, fillcolor="#e58139aa"] ;
108 -> 110 ;
111 [label=<Time_Spend_Company &le; 4.5<br/>gini = 0.5<br/>samples = 2<br/>value = [1, 1]<br/>class = y<SUB>0</SUB>>, fillcolor="#e5813900"] ;
110 -> 111 ;
112 [label=<gini = 0.0<br/>samples = 1<br/>value = [0, 1]<br/>class = y<SUB>1</SUB>>, fillcolor="#399de5ff"] ;
111 -> 112 ;
113 [label=<gini = 0.0<br/>samples = 1<br/>value = [1, 0]<br/>class = y<SUB>0</SUB>>, fillcolor="#e58139ff"] ;
111 -> 113 ;
114 [label=<gini = 0.0<br/>samples = 2<br/>value = [2, 0]<br/>class = y<SUB>0</SUB>>, fillcolor="#e58139ff"] ;
110 -> 114 ;
115 [label=<gini = 0.0<br/>samples = 100<br/>value = [100, 0]<br/>class = y<SUB>0</SUB>>, fillcolor="#e58139ff"] ;
107 -> 115 ;
116 [label=<Average_Montly_Hours &le; 233.0<br/>gini = 0.1567<br/>samples = 70<br/>value = [64, 6]<br/>class = y<SUB>0</SUB>>, fillcolor="#e58139e7"] ;
102 -> 116 ;
117 [label=<Time_Spend_Company &le; 4.0<br/>gini = 0.48<br/>samples = 5<br/>value = [2, 3]<br/>class = y<SUB>1</SUB>>, fillcolor="#399de555"] ;
116 -> 117 ;
118 [label=<gini = 0.0<br/>samples = 3<br/>value = [0, 3]<br/>class = y<SUB>1</SUB>>, fillcolor="#399de5ff"] ;
117 -> 118 ;
119 [label=<gini = 0.0<br/>samples = 2<br/>value = [2, 0]<br/>class = y<SUB>0</SUB>>, fillcolor="#e58139ff"] ;
117 -> 119 ;
120 [label=<Department &le; 7.5<br/>gini = 0.088<br/>samples = 65<br/>value = [62, 3]<br/>class = y<SUB>0</SUB>>, fillcolor="#e58139f3"] ;
116 -> 120 ;
121 [label=<Last_Evaluation &le; 0.66<br/>gini = 0.0615<br/>samples = 63<br/>value = [61, 2]<br/>class = y<SUB>0</SUB>>, fillcolor="#e58139f7"] ;
120 -> 121 ;
122 [label=<Last_Evaluation &le; 0.64<br/>gini = 0.1723<br/>samples = 21<br/>value = [19, 2]<br/>class = y<SUB>0</SUB>>, fillcolor="#e58139e4"] ;
121 -> 122 ;
123 [label=<Average_Montly_Hours &le; 252.5<br/>gini = 0.095<br/>samples = 20<br/>value = [19, 1]<br/>class = y<SUB>0</SUB>>, fillcolor="#e58139f2"] ;
122 -> 123 ;
124 [label=<Department &le; 0.5<br/>gini = 0.2778<br/>samples = 6<br/>value = [5, 1]<br/>class = y<SUB>0</SUB>>, fillcolor="#e58139cc"] ;
123 -> 124 ;
125 [label=<gini = 0.0<br/>samples = 1<br/>value = [0, 1]<br/>class = y<SUB>1</SUB>>, fillcolor="#399de5ff"] ;
124 -> 125 ;
126 [label=<gini = 0.0<br/>samples = 5<br/>value = [5, 0]<br/>class = y<SUB>0</SUB>>, fillcolor="#e58139ff"] ;
124 -> 126 ;
127 [label=<gini = 0.0<br/>samples = 14<br/>value = [14, 0]<br/>class = y<SUB>0</SUB>>, fillcolor="#e58139ff"] ;
123 -> 127 ;
128 [label=<gini = 0.0<br/>samples = 1<br/>value = [0, 1]<br/>class = y<SUB>1</SUB>>, fillcolor="#399de5ff"] ;
122 -> 128 ;
129 [label=<gini = 0.0<br/>samples = 42<br/>value = [42, 0]<br/>class = y<SUB>0</SUB>>, fillcolor="#e58139ff"] ;
121 -> 129 ;
130 [label=<Satisfaction_Level &le; 0.16<br/>gini = 0.5<br/>samples = 2<br/>value = [1, 1]<br/>class = y<SUB>0</SUB>>, fillcolor="#e5813900"] ;
120 -> 130 ;
131 [label=<gini = 0.0<br/>samples = 1<br/>value = [0, 1]<br/>class = y<SUB>1</SUB>>, fillcolor="#399de5ff"] ;
130 -> 131 ;
132 [label=<gini = 0.0<br/>samples = 1<br/>value = [1, 0]<br/>class = y<SUB>0</SUB>>, fillcolor="#e58139ff"] ;
130 -> 132 ;
133 [label=<Average_Montly_Hours &le; 138.5<br/>gini = 0.0256<br/>samples = 540<br/>value = [533, 7]<br/>class = y<SUB>0</SUB>>, fillcolor="#e58139fc"] ;
101 -> 133 ;
134 [label=<Average_Montly_Hours &le; 134.5<br/>gini = 0.0997<br/>samples = 57<br/>value = [54, 3]<br/>class = y<SUB>0</SUB>>, fillcolor="#e58139f1"] ;
133 -> 134 ;
135 [label=<gini = 0.0<br/>samples = 52<br/>value = [52, 0]<br/>class = y<SUB>0</SUB>>, fillcolor="#e58139ff"] ;
134 -> 135 ;
136 [label=<Department &le; 0.5<br/>gini = 0.48<br/>samples = 5<br/>value = [2, 3]<br/>class = y<SUB>1</SUB>>, fillcolor="#399de555"] ;
134 -> 136 ;
137 [label=<gini = 0.0<br/>samples = 2<br/>value = [2, 0]<br/>class = y<SUB>0</SUB>>, fillcolor="#e58139ff"] ;
136 -> 137 ;
138 [label=<gini = 0.0<br/>samples = 3<br/>value = [0, 3]<br/>class = y<SUB>1</SUB>>, fillcolor="#399de5ff"] ;
136 -> 138 ;
139 [label=<Last_Evaluation &le; 0.985<br/>gini = 0.0164<br/>samples = 483<br/>value = [479, 4]<br/>class = y<SUB>0</SUB>>, fillcolor="#e58139fd"] ;
133 -> 139 ;
140 [label=<Average_Montly_Hours &le; 280.5<br/>gini = 0.0126<br/>samples = 473<br/>value = [470, 3]<br/>class = y<SUB>0</SUB>>, fillcolor="#e58139fd"] ;
139 -> 140 ;
141 [label=<Satisfaction_Level &le; 0.295<br/>gini = 0.0088<br/>samples = 454<br/>value = [452, 2]<br/>class = y<SUB>0</SUB>>, fillcolor="#e58139fe"] ;
140 -> 141 ;
142 [label=<Average_Montly_Hours &le; 168.5<br/>gini = 0.0046<br/>samples = 434<br/>value = [433, 1]<br/>class = y<SUB>0</SUB>>, fillcolor="#e58139fe"] ;
141 -> 142 ;
143 [label=<Average_Montly_Hours &le; 167.5<br/>gini = 0.0198<br/>samples = 100<br/>value = [99, 1]<br/>class = y<SUB>0</SUB>>, fillcolor="#e58139fc"] ;
142 -> 143 ;
144 [label=<gini = 0.0<br/>samples = 97<br/>value = [97, 0]<br/>class = y<SUB>0</SUB>>, fillcolor="#e58139ff"] ;
143 -> 144 ;
145 [label=<Last_Evaluation &le; 0.765<br/>gini = 0.4444<br/>samples = 3<br/>value = [2, 1]<br/>class = y<SUB>0</SUB>>, fillcolor="#e581397f"] ;
143 -> 145 ;
146 [label=<gini = 0.0<br/>samples = 1<br/>value = [0, 1]<br/>class = y<SUB>1</SUB>>, fillcolor="#399de5ff"] ;
145 -> 146 ;
147 [label=<gini = 0.0<br/>samples = 2<br/>value = [2, 0]<br/>class = y<SUB>0</SUB>>, fillcolor="#e58139ff"] ;
145 -> 147 ;
148 [label=<gini = 0.0<br/>samples = 334<br/>value = [334, 0]<br/>class = y<SUB>0</SUB>>, fillcolor="#e58139ff"] ;
142 -> 148 ;
149 [label=<Average_Montly_Hours &le; 253.5<br/>gini = 0.095<br/>samples = 20<br/>value = [19, 1]<br/>class = y<SUB>0</SUB>>, fillcolor="#e58139f2"] ;
141 -> 149 ;
150 [label=<gini = 0.0<br/>samples = 17<br/>value = [17, 0]<br/>class = y<SUB>0</SUB>>, fillcolor="#e58139ff"] ;
149 -> 150 ;
151 [label=<Department &le; 6.5<br/>gini = 0.4444<br/>samples = 3<br/>value = [2, 1]<br/>class = y<SUB>0</SUB>>, fillcolor="#e581397f"] ;
149 -> 151 ;
152 [label=<gini = 0.0<br/>samples = 1<br/>value = [0, 1]<br/>class = y<SUB>1</SUB>>, fillcolor="#399de5ff"] ;
151 -> 152 ;
153 [label=<gini = 0.0<br/>samples = 2<br/>value = [2, 0]<br/>class = y<SUB>0</SUB>>, fillcolor="#e58139ff"] ;
151 -> 153 ;
154 [label=<Average_Montly_Hours &le; 281.5<br/>gini = 0.0997<br/>samples = 19<br/>value = [18, 1]<br/>class = y<SUB>0</SUB>>, fillcolor="#e58139f1"] ;
140 -> 154 ;
155 [label=<Last_Evaluation &le; 0.645<br/>gini = 0.32<br/>samples = 5<br/>value = [4, 1]<br/>class = y<SUB>0</SUB>>, fillcolor="#e58139bf"] ;
154 -> 155 ;
156 [label=<gini = 0.0<br/>samples = 4<br/>value = [4, 0]<br/>class = y<SUB>0</SUB>>, fillcolor="#e58139ff"] ;
155 -> 156 ;
157 [label=<gini = 0.0<br/>samples = 1<br/>value = [0, 1]<br/>class = y<SUB>1</SUB>>, fillcolor="#399de5ff"] ;
155 -> 157 ;
158 [label=<gini = 0.0<br/>samples = 14<br/>value = [14, 0]<br/>class = y<SUB>0</SUB>>, fillcolor="#e58139ff"] ;
154 -> 158 ;
159 [label=<Average_Montly_Hours &le; 194.0<br/>gini = 0.18<br/>samples = 10<br/>value = [9, 1]<br/>class = y<SUB>0</SUB>>, fillcolor="#e58139e3"] ;
139 -> 159 ;
160 [label=<gini = 0.0<br/>samples = 8<br/>value = [8, 0]<br/>class = y<SUB>0</SUB>>, fillcolor="#e58139ff"] ;
159 -> 160 ;
161 [label=<Work_Accident &le; 0.5<br/>gini = 0.5<br/>samples = 2<br/>value = [1, 1]<br/>class = y<SUB>0</SUB>>, fillcolor="#e5813900"] ;
159 -> 161 ;
162 [label=<gini = 0.0<br/>samples = 1<br/>value = [1, 0]<br/>class = y<SUB>0</SUB>>, fillcolor="#e58139ff"] ;
161 -> 162 ;
163 [label=<gini = 0.0<br/>samples = 1<br/>value = [0, 1]<br/>class = y<SUB>1</SUB>>, fillcolor="#399de5ff"] ;
161 -> 163 ;
164 [label=<Satisfaction_Level &le; 0.315<br/>gini = 0.1598<br/>samples = 548<br/>value = [500, 48]<br/>class = y<SUB>0</SUB>>, fillcolor="#e58139e7"] ;
64 -> 164 ;
165 [label=<Number_Projects &le; 3.5<br/>gini = 0.4234<br/>samples = 46<br/>value = [32, 14]<br/>class = y<SUB>0</SUB>>, fillcolor="#e581398f"] ;
164 -> 165 ;
166 [label=<gini = 0.0<br/>samples = 12<br/>value = [12, 0]<br/>class = y<SUB>0</SUB>>, fillcolor="#e58139ff"] ;
165 -> 166 ;
167 [label=<Work_Accident &le; 0.5<br/>gini = 0.4844<br/>samples = 34<br/>value = [20, 14]<br/>class = y<SUB>0</SUB>>, fillcolor="#e581394d"] ;
165 -> 167 ;
168 [label=<Department &le; 0.5<br/>gini = 0.4993<br/>samples = 27<br/>value = [13, 14]<br/>class = y<SUB>1</SUB>>, fillcolor="#399de512"] ;
167 -> 168 ;
169 [label=<gini = 0.0<br/>samples = 5<br/>value = [0, 5]<br/>class = y<SUB>1</SUB>>, fillcolor="#399de5ff"] ;
168 -> 169 ;
170 [label=<Average_Montly_Hours &le; 233.5<br/>gini = 0.4835<br/>samples = 22<br/>value = [13, 9]<br/>class = y<SUB>0</SUB>>, fillcolor="#e581394e"] ;
168 -> 170 ;
171 [label=<Number_Projects &le; 5.5<br/>gini = 0.4012<br/>samples = 18<br/>value = [13, 5]<br/>class = y<SUB>0</SUB>>, fillcolor="#e581399d"] ;
170 -> 171 ;
172 [label=<Department &le; 1.5<br/>gini = 0.2311<br/>samples = 15<br/>value = [13, 2]<br/>class = y<SUB>0</SUB>>, fillcolor="#e58139d8"] ;
171 -> 172 ;
173 [label=<Time_Spend_Company &le; 3.5<br/>gini = 0.5<br/>samples = 4<br/>value = [2, 2]<br/>class = y<SUB>0</SUB>>, fillcolor="#e5813900"] ;
172 -> 173 ;
174 [label=<gini = 0.0<br/>samples = 2<br/>value = [0, 2]<br/>class = y<SUB>1</SUB>>, fillcolor="#399de5ff"] ;
173 -> 174 ;
175 [label=<gini = 0.0<br/>samples = 2<br/>value = [2, 0]<br/>class = y<SUB>0</SUB>>, fillcolor="#e58139ff"] ;
173 -> 175 ;
176 [label=<gini = 0.0<br/>samples = 11<br/>value = [11, 0]<br/>class = y<SUB>0</SUB>>, fillcolor="#e58139ff"] ;
172 -> 176 ;
177 [label=<gini = 0.0<br/>samples = 3<br/>value = [0, 3]<br/>class = y<SUB>1</SUB>>, fillcolor="#399de5ff"] ;
171 -> 177 ;
178 [label=<gini = 0.0<br/>samples = 4<br/>value = [0, 4]<br/>class = y<SUB>1</SUB>>, fillcolor="#399de5ff"] ;
170 -> 178 ;
179 [label=<gini = 0.0<br/>samples = 7<br/>value = [7, 0]<br/>class = y<SUB>0</SUB>>, fillcolor="#e58139ff"] ;
167 -> 179 ;
180 [label=<Last_Evaluation &le; 0.525<br/>gini = 0.1263<br/>samples = 502<br/>value = [468, 34]<br/>class = y<SUB>0</SUB>>, fillcolor="#e58139ec"] ;
164 -> 180 ;
181 [label=<gini = 0.0<br/>samples = 154<br/>value = [154, 0]<br/>class = y<SUB>0</SUB>>, fillcolor="#e58139ff"] ;
180 -> 181 ;
182 [label=<Average_Montly_Hours &le; 198.5<br/>gini = 0.1763<br/>samples = 348<br/>value = [314, 34]<br/>class = y<SUB>0</SUB>>, fillcolor="#e58139e3"] ;
180 -> 182 ;
183 [label=<Last_Evaluation &le; 0.855<br/>gini = 0.1107<br/>samples = 221<br/>value = [208, 13]<br/>class = y<SUB>0</SUB>>, fillcolor="#e58139ef"] ;
182 -> 183 ;
184 [label=<Number_Projects &le; 3.5<br/>gini = 0.0543<br/>samples = 179<br/>value = [174, 5]<br/>class = y<SUB>0</SUB>>, fillcolor="#e58139f8"] ;
183 -> 184 ;
185 [label=<gini = 0.0<br/>samples = 97<br/>value = [97, 0]<br/>class = y<SUB>0</SUB>>, fillcolor="#e58139ff"] ;
184 -> 185 ;
186 [label=<Last_Evaluation &le; 0.565<br/>gini = 0.1145<br/>samples = 82<br/>value = [77, 5]<br/>class = y<SUB>0</SUB>>, fillcolor="#e58139ee"] ;
184 -> 186 ;
187 [label=<Satisfaction_Level &le; 0.39<br/>gini = 0.5<br/>samples = 4<br/>value = [2, 2]<br/>class = y<SUB>0</SUB>>, fillcolor="#e5813900"] ;
186 -> 187 ;
188 [label=<gini = 0.0<br/>samples = 2<br/>value = [2, 0]<br/>class = y<SUB>0</SUB>>, fillcolor="#e58139ff"] ;
187 -> 188 ;
189 [label=<gini = 0.0<br/>samples = 2<br/>value = [0, 2]<br/>class = y<SUB>1</SUB>>, fillcolor="#399de5ff"] ;
187 -> 189 ;
190 [label=<Satisfaction_Level &le; 0.345<br/>gini = 0.074<br/>samples = 78<br/>value = [75, 3]<br/>class = y<SUB>0</SUB>>, fillcolor="#e58139f5"] ;
186 -> 190 ;
191 [label=<Time_Spend_Company &le; 2.5<br/>gini = 0.255<br/>samples = 20<br/>value = [17, 3]<br/>class = y<SUB>0</SUB>>, fillcolor="#e58139d2"] ;
190 -> 191 ;
192 [label=<Department &le; 0.5<br/>gini = 0.5<br/>samples = 6<br/>value = [3, 3]<br/>class = y<SUB>0</SUB>>, fillcolor="#e5813900"] ;
191 -> 192 ;
193 [label=<gini = 0.0<br/>samples = 3<br/>value = [0, 3]<br/>class = y<SUB>1</SUB>>, fillcolor="#399de5ff"] ;
192 -> 193 ;
194 [label=<gini = 0.0<br/>samples = 3<br/>value = [3, 0]<br/>class = y<SUB>0</SUB>>, fillcolor="#e58139ff"] ;
192 -> 194 ;
195 [label=<gini = 0.0<br/>samples = 14<br/>value = [14, 0]<br/>class = y<SUB>0</SUB>>, fillcolor="#e58139ff"] ;
191 -> 195 ;
196 [label=<gini = 0.0<br/>samples = 58<br/>value = [58, 0]<br/>class = y<SUB>0</SUB>>, fillcolor="#e58139ff"] ;
190 -> 196 ;
197 [label=<Satisfaction_Level &le; 0.385<br/>gini = 0.3084<br/>samples = 42<br/>value = [34, 8]<br/>class = y<SUB>0</SUB>>, fillcolor="#e58139c3"] ;
183 -> 197 ;
198 [label=<Satisfaction_Level &le; 0.375<br/>gini = 0.4717<br/>samples = 21<br/>value = [13, 8]<br/>class = y<SUB>0</SUB>>, fillcolor="#e5813962"] ;
197 -> 198 ;
199 [label=<Time_Spend_Company &le; 2.5<br/>gini = 0.3599<br/>samples = 17<br/>value = [13, 4]<br/>class = y<SUB>0</SUB>>, fillcolor="#e58139b1"] ;
198 -> 199 ;
200 [label=<gini = 0.0<br/>samples = 3<br/>value = [0, 3]<br/>class = y<SUB>1</SUB>>, fillcolor="#399de5ff"] ;
199 -> 200 ;
201 [label=<Work_Accident &le; 0.5<br/>gini = 0.1327<br/>samples = 14<br/>value = [13, 1]<br/>class = y<SUB>0</SUB>>, fillcolor="#e58139eb"] ;
199 -> 201 ;
202 [label=<gini = 0.0<br/>samples = 12<br/>value = [12, 0]<br/>class = y<SUB>0</SUB>>, fillcolor="#e58139ff"] ;
201 -> 202 ;
203 [label=<Satisfaction_Level &le; 0.35<br/>gini = 0.5<br/>samples = 2<br/>value = [1, 1]<br/>class = y<SUB>0</SUB>>, fillcolor="#e5813900"] ;
201 -> 203 ;
204 [label=<gini = 0.0<br/>samples = 1<br/>value = [0, 1]<br/>class = y<SUB>1</SUB>>, fillcolor="#399de5ff"] ;
203 -> 204 ;
205 [label=<gini = 0.0<br/>samples = 1<br/>value = [1, 0]<br/>class = y<SUB>0</SUB>>, fillcolor="#e58139ff"] ;
203 -> 205 ;
206 [label=<gini = 0.0<br/>samples = 4<br/>value = [0, 4]<br/>class = y<SUB>1</SUB>>, fillcolor="#399de5ff"] ;
198 -> 206 ;
207 [label=<gini = 0.0<br/>samples = 21<br/>value = [21, 0]<br/>class = y<SUB>0</SUB>>, fillcolor="#e58139ff"] ;
197 -> 207 ;
208 [label=<Last_Evaluation &le; 0.54<br/>gini = 0.276<br/>samples = 127<br/>value = [106, 21]<br/>class = y<SUB>0</SUB>>, fillcolor="#e58139cc"] ;
182 -> 208 ;
209 [label=<gini = 0.0<br/>samples = 3<br/>value = [0, 3]<br/>class = y<SUB>1</SUB>>, fillcolor="#399de5ff"] ;
208 -> 209 ;
210 [label=<Time_Spend_Company &le; 5.5<br/>gini = 0.2482<br/>samples = 124<br/>value = [106, 18]<br/>class = y<SUB>0</SUB>>, fillcolor="#e58139d4"] ;
208 -> 210 ;
211 [label=<Last_Evaluation &le; 0.98<br/>gini = 0.3047<br/>samples = 96<br/>value = [78, 18]<br/>class = y<SUB>0</SUB>>, fillcolor="#e58139c4"] ;
210 -> 211 ;
212 [label=<Department &le; 8.5<br/>gini = 0.2825<br/>samples = 94<br/>value = [78, 16]<br/>class = y<SUB>0</SUB>>, fillcolor="#e58139cb"] ;
211 -> 212 ;
213 [label=<Department &le; 2.5<br/>gini = 0.2495<br/>samples = 89<br/>value = [76, 13]<br/>class = y<SUB>0</SUB>>, fillcolor="#e58139d3"] ;
212 -> 213 ;
214 [label=<Department &le; 1.5<br/>gini = 0.3503<br/>samples = 53<br/>value = [41, 12]<br/>class = y<SUB>0</SUB>>, fillcolor="#e58139b4"] ;
213 -> 214 ;
215 [label=<Average_Montly_Hours &le; 269.5<br/>gini = 0.2778<br/>samples = 42<br/>value = [35, 7]<br/>class = y<SUB>0</SUB>>, fillcolor="#e58139cc"] ;
214 -> 215 ;
216 [label=<Last_Evaluation &le; 0.695<br/>gini = 0.1284<br/>samples = 29<br/>value = [27, 2]<br/>class = y<SUB>0</SUB>>, fillcolor="#e58139ec"] ;
215 -> 216 ;
217 [label=<Last_Evaluation &le; 0.605<br/>gini = 0.375<br/>samples = 8<br/>value = [6, 2]<br/>class = y<SUB>0</SUB>>, fillcolor="#e58139aa"] ;
216 -> 217 ;
218 [label=<gini = 0.0<br/>samples = 5<br/>value = [5, 0]<br/>class = y<SUB>0</SUB>>, fillcolor="#e58139ff"] ;
217 -> 218 ;
219 [label=<Average_Montly_Hours &le; 242.5<br/>gini = 0.4444<br/>samples = 3<br/>value = [1, 2]<br/>class = y<SUB>1</SUB>>, fillcolor="#399de57f"] ;
217 -> 219 ;
220 [label=<gini = 0.0<br/>samples = 2<br/>value = [0, 2]<br/>class = y<SUB>1</SUB>>, fillcolor="#399de5ff"] ;
219 -> 220 ;
221 [label=<gini = 0.0<br/>samples = 1<br/>value = [1, 0]<br/>class = y<SUB>0</SUB>>, fillcolor="#e58139ff"] ;
219 -> 221 ;
222 [label=<gini = 0.0<br/>samples = 21<br/>value = [21, 0]<br/>class = y<SUB>0</SUB>>, fillcolor="#e58139ff"] ;
216 -> 222 ;
223 [label=<Average_Montly_Hours &le; 271.5<br/>gini = 0.4734<br/>samples = 13<br/>value = [8, 5]<br/>class = y<SUB>0</SUB>>, fillcolor="#e5813960"] ;
215 -> 223 ;
224 [label=<gini = 0.0<br/>samples = 3<br/>value = [0, 3]<br/>class = y<SUB>1</SUB>>, fillcolor="#399de5ff"] ;
223 -> 224 ;
225 [label=<Last_Evaluation &le; 0.705<br/>gini = 0.32<br/>samples = 10<br/>value = [8, 2]<br/>class = y<SUB>0</SUB>>, fillcolor="#e58139bf"] ;
223 -> 225 ;
226 [label=<gini = 0.0<br/>samples = 5<br/>value = [5, 0]<br/>class = y<SUB>0</SUB>>, fillcolor="#e58139ff"] ;
225 -> 226 ;
227 [label=<Last_Evaluation &le; 0.835<br/>gini = 0.48<br/>samples = 5<br/>value = [3, 2]<br/>class = y<SUB>0</SUB>>, fillcolor="#e5813955"] ;
225 -> 227 ;
228 [label=<Time_Spend_Company &le; 2.5<br/>gini = 0.4444<br/>samples = 3<br/>value = [1, 2]<br/>class = y<SUB>1</SUB>>, fillcolor="#399de57f"] ;
227 -> 228 ;
229 [label=<gini = 0.0<br/>samples = 2<br/>value = [0, 2]<br/>class = y<SUB>1</SUB>>, fillcolor="#399de5ff"] ;
228 -> 229 ;
230 [label=<gini = 0.0<br/>samples = 1<br/>value = [1, 0]<br/>class = y<SUB>0</SUB>>, fillcolor="#e58139ff"] ;
228 -> 230 ;
231 [label=<gini = 0.0<br/>samples = 2<br/>value = [2, 0]<br/>class = y<SUB>0</SUB>>, fillcolor="#e58139ff"] ;
227 -> 231 ;
232 [label=<Average_Montly_Hours &le; 224.0<br/>gini = 0.4959<br/>samples = 11<br/>value = [6, 5]<br/>class = y<SUB>0</SUB>>, fillcolor="#e581392a"] ;
214 -> 232 ;
233 [label=<gini = 0.0<br/>samples = 5<br/>value = [0, 5]<br/>class = y<SUB>1</SUB>>, fillcolor="#399de5ff"] ;
232 -> 233 ;
234 [label=<gini = 0.0<br/>samples = 6<br/>value = [6, 0]<br/>class = y<SUB>0</SUB>>, fillcolor="#e58139ff"] ;
232 -> 234 ;
235 [label=<Average_Montly_Hours &le; 205.5<br/>gini = 0.054<br/>samples = 36<br/>value = [35, 1]<br/>class = y<SUB>0</SUB>>, fillcolor="#e58139f8"] ;
213 -> 235 ;
236 [label=<Last_Evaluation &le; 0.645<br/>gini = 0.5<br/>samples = 2<br/>value = [1, 1]<br/>class = y<SUB>0</SUB>>, fillcolor="#e5813900"] ;
235 -> 236 ;
237 [label=<gini = 0.0<br/>samples = 1<br/>value = [1, 0]<br/>class = y<SUB>0</SUB>>, fillcolor="#e58139ff"] ;
236 -> 237 ;
238 [label=<gini = 0.0<br/>samples = 1<br/>value = [0, 1]<br/>class = y<SUB>1</SUB>>, fillcolor="#399de5ff"] ;
236 -> 238 ;
239 [label=<gini = 0.0<br/>samples = 34<br/>value = [34, 0]<br/>class = y<SUB>0</SUB>>, fillcolor="#e58139ff"] ;
235 -> 239 ;
240 [label=<Satisfaction_Level &le; 0.395<br/>gini = 0.48<br/>samples = 5<br/>value = [2, 3]<br/>class = y<SUB>1</SUB>>, fillcolor="#399de555"] ;
212 -> 240 ;
241 [label=<gini = 0.0<br/>samples = 2<br/>value = [2, 0]<br/>class = y<SUB>0</SUB>>, fillcolor="#e58139ff"] ;
240 -> 241 ;
242 [label=<gini = 0.0<br/>samples = 3<br/>value = [0, 3]<br/>class = y<SUB>1</SUB>>, fillcolor="#399de5ff"] ;
240 -> 242 ;
243 [label=<gini = 0.0<br/>samples = 2<br/>value = [0, 2]<br/>class = y<SUB>1</SUB>>, fillcolor="#399de5ff"] ;
211 -> 243 ;
244 [label=<gini = 0.0<br/>samples = 28<br/>value = [28, 0]<br/>class = y<SUB>0</SUB>>, fillcolor="#e58139ff"] ;
210 -> 244 ;
245 [label=<Average_Montly_Hours &le; 190.0<br/>gini = 0.4986<br/>samples = 19<br/>value = [10, 9]<br/>class = y<SUB>0</SUB>>, fillcolor="#e5813919"] ;
63 -> 245 ;
246 [label=<Satisfaction_Level &le; 0.365<br/>gini = 0.2449<br/>samples = 7<br/>value = [6, 1]<br/>class = y<SUB>0</SUB>>, fillcolor="#e58139d4"] ;
245 -> 246 ;
247 [label=<gini = 0.0<br/>samples = 6<br/>value = [6, 0]<br/>class = y<SUB>0</SUB>>, fillcolor="#e58139ff"] ;
246 -> 247 ;
248 [label=<gini = 0.0<br/>samples = 1<br/>value = [0, 1]<br/>class = y<SUB>1</SUB>>, fillcolor="#399de5ff"] ;
246 -> 248 ;
249 [label=<Number_Projects &le; 4.5<br/>gini = 0.4444<br/>samples = 12<br/>value = [4, 8]<br/>class = y<SUB>1</SUB>>, fillcolor="#399de57f"] ;
245 -> 249 ;
250 [label=<gini = 0.0<br/>samples = 8<br/>value = [0, 8]<br/>class = y<SUB>1</SUB>>, fillcolor="#399de5ff"] ;
249 -> 250 ;
251 [label=<gini = 0.0<br/>samples = 4<br/>value = [4, 0]<br/>class = y<SUB>0</SUB>>, fillcolor="#e58139ff"] ;
249 -> 251 ;
252 [label=<gini = 0.0<br/>samples = 11<br/>value = [0, 11]<br/>class = y<SUB>1</SUB>>, fillcolor="#399de5ff"] ;
62 -> 252 ;
253 [label=<gini = 0.0<br/>samples = 15<br/>value = [0, 15]<br/>class = y<SUB>1</SUB>>, fillcolor="#399de5ff"] ;
61 -> 253 ;
254 [label=<Time_Spend_Company &le; 4.5<br/>gini = 0.1738<br/>samples = 10816<br/>value = [9776, 1040]<br/>class = y<SUB>0</SUB>>, fillcolor="#e58139e4"] ;
0 -> 254 [labeldistance=2.5, labelangle=-45, headlabel="False"] ;
255 [label=<Average_Montly_Hours &le; 290.5<br/>gini = 0.0286<br/>samples = 8834<br/>value = [8706, 128]<br/>class = y<SUB>0</SUB>>, fillcolor="#e58139fb"] ;
254 -> 255 ;
256 [label=<Number_Projects &le; 6.5<br/>gini = 0.0266<br/>samples = 8825<br/>value = [8706, 119]<br/>class = y<SUB>0</SUB>>, fillcolor="#e58139fc"] ;
255 -> 256 ;
257 [label=<Number_Projects &le; 5.5<br/>gini = 0.0257<br/>samples = 8821<br/>value = [8706, 115]<br/>class = y<SUB>0</SUB>>, fillcolor="#e58139fc"] ;
256 -> 257 ;
258 [label=<Time_Spend_Company &le; 3.5<br/>gini = 0.0228<br/>samples = 8668<br/>value = [8568, 100]<br/>class = y<SUB>0</SUB>>, fillcolor="#e58139fc"] ;
257 -> 258 ;
259 [label=<Number_Projects &le; 2.5<br/>gini = 0.0151<br/>samples = 7352<br/>value = [7296, 56]<br/>class = y<SUB>0</SUB>>, fillcolor="#e58139fd"] ;
258 -> 259 ;
260 [label=<Last_Evaluation &le; 0.985<br/>gini = 0.0819<br/>samples = 421<br/>value = [403, 18]<br/>class = y<SUB>0</SUB>>, fillcolor="#e58139f4"] ;
259 -> 260 ;
261 [label=<Satisfaction_Level &le; 0.485<br/>gini = 0.0666<br/>samples = 406<br/>value = [392, 14]<br/>class = y<SUB>0</SUB>>, fillcolor="#e58139f6"] ;
260 -> 261 ;
262 [label=<Last_Evaluation &le; 0.76<br/>gini = 0.2907<br/>samples = 17<br/>value = [14, 3]<br/>class = y<SUB>0</SUB>>, fillcolor="#e58139c8"] ;
261 -> 262 ;
263 [label=<gini = 0.0<br/>samples = 14<br/>value = [14, 0]<br/>class = y<SUB>0</SUB>>, fillcolor="#e58139ff"] ;
262 -> 263 ;
264 [label=<gini = 0.0<br/>samples = 3<br/>value = [0, 3]<br/>class = y<SUB>1</SUB>>, fillcolor="#399de5ff"] ;
262 -> 264 ;
265 [label=<Average_Montly_Hours &le; 252.5<br/>gini = 0.055<br/>samples = 389<br/>value = [378, 11]<br/>class = y<SUB>0</SUB>>, fillcolor="#e58139f8"] ;
261 -> 265 ;
266 [label=<Last_Evaluation &le; 0.825<br/>gini = 0.0304<br/>samples = 324<br/>value = [319, 5]<br/>class = y<SUB>0</SUB>>, fillcolor="#e58139fb"] ;
265 -> 266 ;
267 [label=<gini = 0.0<br/>samples = 254<br/>value = [254, 0]<br/>class = y<SUB>0</SUB>>, fillcolor="#e58139ff"] ;
266 -> 267 ;
268 [label=<Last_Evaluation &le; 0.835<br/>gini = 0.1327<br/>samples = 70<br/>value = [65, 5]<br/>class = y<SUB>0</SUB>>, fillcolor="#e58139eb"] ;
266 -> 268 ;
269 [label=<Satisfaction_Level &le; 0.795<br/>gini = 0.4688<br/>samples = 8<br/>value = [5, 3]<br/>class = y<SUB>0</SUB>>, fillcolor="#e5813966"] ;
268 -> 269 ;
270 [label=<gini = 0.0<br/>samples = 4<br/>value = [4, 0]<br/>class = y<SUB>0</SUB>>, fillcolor="#e58139ff"] ;
269 -> 270 ;
271 [label=<Department &le; 1.5<br/>gini = 0.375<br/>samples = 4<br/>value = [1, 3]<br/>class = y<SUB>1</SUB>>, fillcolor="#399de5aa"] ;
269 -> 271 ;
272 [label=<gini = 0.0<br/>samples = 1<br/>value = [1, 0]<br/>class = y<SUB>0</SUB>>, fillcolor="#e58139ff"] ;
271 -> 272 ;
273 [label=<gini = 0.0<br/>samples = 3<br/>value = [0, 3]<br/>class = y<SUB>1</SUB>>, fillcolor="#399de5ff"] ;
271 -> 273 ;
274 [label=<Average_Montly_Hours &le; 185.0<br/>gini = 0.0624<br/>samples = 62<br/>value = [60, 2]<br/>class = y<SUB>0</SUB>>, fillcolor="#e58139f6"] ;
268 -> 274 ;
275 [label=<Average_Montly_Hours &le; 180.5<br/>gini = 0.1472<br/>samples = 25<br/>value = [23, 2]<br/>class = y<SUB>0</SUB>>, fillcolor="#e58139e9"] ;
274 -> 275 ;
276 [label=<Satisfaction_Level &le; 0.84<br/>gini = 0.0799<br/>samples = 24<br/>value = [23, 1]<br/>class = y<SUB>0</SUB>>, fillcolor="#e58139f4"] ;
275 -> 276 ;
277 [label=<gini = 0.0<br/>samples = 21<br/>value = [21, 0]<br/>class = y<SUB>0</SUB>>, fillcolor="#e58139ff"] ;
276 -> 277 ;
278 [label=<Average_Montly_Hours &le; 165.5<br/>gini = 0.4444<br/>samples = 3<br/>value = [2, 1]<br/>class = y<SUB>0</SUB>>, fillcolor="#e581397f"] ;
276 -> 278 ;
279 [label=<gini = 0.0<br/>samples = 2<br/>value = [2, 0]<br/>class = y<SUB>0</SUB>>, fillcolor="#e58139ff"] ;
278 -> 279 ;
280 [label=<gini = 0.0<br/>samples = 1<br/>value = [0, 1]<br/>class = y<SUB>1</SUB>>, fillcolor="#399de5ff"] ;
278 -> 280 ;
281 [label=<gini = 0.0<br/>samples = 1<br/>value = [0, 1]<br/>class = y<SUB>1</SUB>>, fillcolor="#399de5ff"] ;
275 -> 281 ;
282 [label=<gini = 0.0<br/>samples = 37<br/>value = [37, 0]<br/>class = y<SUB>0</SUB>>, fillcolor="#e58139ff"] ;
274 -> 282 ;
283 [label=<Average_Montly_Hours &le; 253.5<br/>gini = 0.1676<br/>samples = 65<br/>value = [59, 6]<br/>class = y<SUB>0</SUB>>, fillcolor="#e58139e5"] ;
265 -> 283 ;
284 [label=<gini = 0.0<br/>samples = 3<br/>value = [0, 3]<br/>class = y<SUB>1</SUB>>, fillcolor="#399de5ff"] ;
283 -> 284 ;
285 [label=<Average_Montly_Hours &le; 256.0<br/>gini = 0.0921<br/>samples = 62<br/>value = [59, 3]<br/>class = y<SUB>0</SUB>>, fillcolor="#e58139f2"] ;
283 -> 285 ;
286 [label=<Satisfaction_Level &le; 0.67<br/>gini = 0.42<br/>samples = 10<br/>value = [7, 3]<br/>class = y<SUB>0</SUB>>, fillcolor="#e5813992"] ;
285 -> 286 ;
287 [label=<Satisfaction_Level &le; 0.61<br/>gini = 0.48<br/>samples = 5<br/>value = [2, 3]<br/>class = y<SUB>1</SUB>>, fillcolor="#399de555"] ;
286 -> 287 ;
288 [label=<gini = 0.0<br/>samples = 2<br/>value = [2, 0]<br/>class = y<SUB>0</SUB>>, fillcolor="#e58139ff"] ;
287 -> 288 ;
289 [label=<gini = 0.0<br/>samples = 3<br/>value = [0, 3]<br/>class = y<SUB>1</SUB>>, fillcolor="#399de5ff"] ;
287 -> 289 ;
290 [label=<gini = 0.0<br/>samples = 5<br/>value = [5, 0]<br/>class = y<SUB>0</SUB>>, fillcolor="#e58139ff"] ;
286 -> 290 ;
291 [label=<gini = 0.0<br/>samples = 52<br/>value = [52, 0]<br/>class = y<SUB>0</SUB>>, fillcolor="#e58139ff"] ;
285 -> 291 ;
292 [label=<Average_Montly_Hours &le; 276.0<br/>gini = 0.3911<br/>samples = 15<br/>value = [11, 4]<br/>class = y<SUB>0</SUB>>, fillcolor="#e58139a2"] ;
260 -> 292 ;
293 [label=<Department &le; 5.5<br/>gini = 0.1528<br/>samples = 12<br/>value = [11, 1]<br/>class = y<SUB>0</SUB>>, fillcolor="#e58139e8"] ;
292 -> 293 ;
294 [label=<gini = 0.0<br/>samples = 11<br/>value = [11, 0]<br/>class = y<SUB>0</SUB>>, fillcolor="#e58139ff"] ;
293 -> 294 ;
295 [label=<gini = 0.0<br/>samples = 1<br/>value = [0, 1]<br/>class = y<SUB>1</SUB>>, fillcolor="#399de5ff"] ;
293 -> 295 ;
296 [label=<gini = 0.0<br/>samples = 3<br/>value = [0, 3]<br/>class = y<SUB>1</SUB>>, fillcolor="#399de5ff"] ;
292 -> 296 ;
297 [label=<Satisfaction_Level &le; 0.475<br/>gini = 0.0109<br/>samples = 6931<br/>value = [6893, 38]<br/>class = y<SUB>0</SUB>>, fillcolor="#e58139fe"] ;
259 -> 297 ;
298 [label=<Last_Evaluation &le; 0.755<br/>gini = 0.1107<br/>samples = 17<br/>value = [16, 1]<br/>class = y<SUB>0</SUB>>, fillcolor="#e58139ef"] ;
297 -> 298 ;
299 [label=<gini = 0.0<br/>samples = 15<br/>value = [15, 0]<br/>class = y<SUB>0</SUB>>, fillcolor="#e58139ff"] ;
298 -> 299 ;
300 [label=<Number_Projects &le; 3.5<br/>gini = 0.5<br/>samples = 2<br/>value = [1, 1]<br/>class = y<SUB>0</SUB>>, fillcolor="#e5813900"] ;
298 -> 300 ;
301 [label=<gini = 0.0<br/>samples = 1<br/>value = [1, 0]<br/>class = y<SUB>0</SUB>>, fillcolor="#e58139ff"] ;
300 -> 301 ;
302 [label=<gini = 0.0<br/>samples = 1<br/>value = [0, 1]<br/>class = y<SUB>1</SUB>>, fillcolor="#399de5ff"] ;
300 -> 302 ;
303 [label=<Satisfaction_Level &le; 0.905<br/>gini = 0.0106<br/>samples = 6914<br/>value = [6877, 37]<br/>class = y<SUB>0</SUB>>, fillcolor="#e58139fe"] ;
297 -> 303 ;
304 [label=<Department &le; 0.5<br/>gini = 0.0129<br/>samples = 5715<br/>value = [5678, 37]<br/>class = y<SUB>0</SUB>>, fillcolor="#e58139fd"] ;
303 -> 304 ;
305 [label=<Satisfaction_Level &le; 0.805<br/>gini = 0.0223<br/>samples = 1505<br/>value = [1488, 17]<br/>class = y<SUB>0</SUB>>, fillcolor="#e58139fc"] ;
304 -> 305 ;
306 [label=<Satisfaction_Level &le; 0.775<br/>gini = 0.0286<br/>samples = 1173<br/>value = [1156, 17]<br/>class = y<SUB>0</SUB>>, fillcolor="#e58139fb"] ;
305 -> 306 ;
307 [label=<Satisfaction_Level &le; 0.575<br/>gini = 0.0189<br/>samples = 1048<br/>value = [1038, 10]<br/>class = y<SUB>0</SUB>>, fillcolor="#e58139fd"] ;
306 -> 307 ;
308 [label=<Satisfaction_Level &le; 0.535<br/>gini = 0.0399<br/>samples = 344<br/>value = [337, 7]<br/>class = y<SUB>0</SUB>>, fillcolor="#e58139fa"] ;
307 -> 308 ;
309 [label=<Satisfaction_Level &le; 0.485<br/>gini = 0.0094<br/>samples = 211<br/>value = [210, 1]<br/>class = y<SUB>0</SUB>>, fillcolor="#e58139fe"] ;
308 -> 309 ;
310 [label=<Average_Montly_Hours &le; 237.5<br/>gini = 0.1172<br/>samples = 16<br/>value = [15, 1]<br/>class = y<SUB>0</SUB>>, fillcolor="#e58139ee"] ;
309 -> 310 ;
311 [label=<gini = 0.0<br/>samples = 15<br/>value = [15, 0]<br/>class = y<SUB>0</SUB>>, fillcolor="#e58139ff"] ;
310 -> 311 ;
312 [label=<gini = 0.0<br/>samples = 1<br/>value = [0, 1]<br/>class = y<SUB>1</SUB>>, fillcolor="#399de5ff"] ;
310 -> 312 ;
313 [label=<gini = 0.0<br/>samples = 195<br/>value = [195, 0]<br/>class = y<SUB>0</SUB>>, fillcolor="#e58139ff"] ;
309 -> 313 ;
314 [label=<Satisfaction_Level &le; 0.545<br/>gini = 0.0862<br/>samples = 133<br/>value = [127, 6]<br/>class = y<SUB>0</SUB>>, fillcolor="#e58139f3"] ;
308 -> 314 ;
315 [label=<Number_Projects &le; 3.5<br/>gini = 0.2248<br/>samples = 31<br/>value = [27, 4]<br/>class = y<SUB>0</SUB>>, fillcolor="#e58139d9"] ;
314 -> 315 ;
316 [label=<gini = 0.0<br/>samples = 17<br/>value = [17, 0]<br/>class = y<SUB>0</SUB>>, fillcolor="#e58139ff"] ;
315 -> 316 ;
317 [label=<Average_Montly_Hours &le; 259.5<br/>gini = 0.4082<br/>samples = 14<br/>value = [10, 4]<br/>class = y<SUB>0</SUB>>, fillcolor="#e5813999"] ;
315 -> 317 ;
318 [label=<Salary &le; 0.5<br/>gini = 0.355<br/>samples = 13<br/>value = [10, 3]<br/>class = y<SUB>0</SUB>>, fillcolor="#e58139b3"] ;
317 -> 318 ;
319 [label=<Average_Montly_Hours &le; 195.5<br/>gini = 0.5<br/>samples = 6<br/>value = [3, 3]<br/>class = y<SUB>0</SUB>>, fillcolor="#e5813900"] ;
318 -> 319 ;
320 [label=<gini = 0.0<br/>samples = 3<br/>value = [0, 3]<br/>class = y<SUB>1</SUB>>, fillcolor="#399de5ff"] ;
319 -> 320 ;
321 [label=<gini = 0.0<br/>samples = 3<br/>value = [3, 0]<br/>class = y<SUB>0</SUB>>, fillcolor="#e58139ff"] ;
319 -> 321 ;
322 [label=<gini = 0.0<br/>samples = 7<br/>value = [7, 0]<br/>class = y<SUB>0</SUB>>, fillcolor="#e58139ff"] ;
318 -> 322 ;
323 [label=<gini = 0.0<br/>samples = 1<br/>value = [0, 1]<br/>class = y<SUB>1</SUB>>, fillcolor="#399de5ff"] ;
317 -> 323 ;
324 [label=<Average_Montly_Hours &le; 218.5<br/>gini = 0.0384<br/>samples = 102<br/>value = [100, 2]<br/>class = y<SUB>0</SUB>>, fillcolor="#e58139fa"] ;
314 -> 324 ;
325 [label=<gini = 0.0<br/>samples = 64<br/>value = [64, 0]<br/>class = y<SUB>0</SUB>>, fillcolor="#e58139ff"] ;
324 -> 325 ;
326 [label=<Average_Montly_Hours &le; 219.5<br/>gini = 0.0997<br/>samples = 38<br/>value = [36, 2]<br/>class = y<SUB>0</SUB>>, fillcolor="#e58139f1"] ;
324 -> 326 ;
327 [label=<gini = 0.0<br/>samples = 1<br/>value = [0, 1]<br/>class = y<SUB>1</SUB>>, fillcolor="#399de5ff"] ;
326 -> 327 ;
328 [label=<Number_Projects &le; 4.5<br/>gini = 0.0526<br/>samples = 37<br/>value = [36, 1]<br/>class = y<SUB>0</SUB>>, fillcolor="#e58139f8"] ;
326 -> 328 ;
329 [label=<gini = 0.0<br/>samples = 31<br/>value = [31, 0]<br/>class = y<SUB>0</SUB>>, fillcolor="#e58139ff"] ;
328 -> 329 ;
330 [label=<Average_Montly_Hours &le; 236.5<br/>gini = 0.2778<br/>samples = 6<br/>value = [5, 1]<br/>class = y<SUB>0</SUB>>, fillcolor="#e58139cc"] ;
328 -> 330 ;
331 [label=<gini = 0.0<br/>samples = 1<br/>value = [0, 1]<br/>class = y<SUB>1</SUB>>, fillcolor="#399de5ff"] ;
330 -> 331 ;
332 [label=<gini = 0.0<br/>samples = 5<br/>value = [5, 0]<br/>class = y<SUB>0</SUB>>, fillcolor="#e58139ff"] ;
330 -> 332 ;
333 [label=<Last_Evaluation &le; 0.995<br/>gini = 0.0085<br/>samples = 704<br/>value = [701, 3]<br/>class = y<SUB>0</SUB>>, fillcolor="#e58139fe"] ;
307 -> 333 ;
334 [label=<Last_Evaluation &le; 0.545<br/>gini = 0.0058<br/>samples = 693<br/>value = [691, 2]<br/>class = y<SUB>0</SUB>>, fillcolor="#e58139fe"] ;
333 -> 334 ;
335 [label=<Last_Evaluation &le; 0.535<br/>gini = 0.036<br/>samples = 109<br/>value = [107, 2]<br/>class = y<SUB>0</SUB>>, fillcolor="#e58139fa"] ;
334 -> 335 ;
336 [label=<gini = 0.0<br/>samples = 99<br/>value = [99, 0]<br/>class = y<SUB>0</SUB>>, fillcolor="#e58139ff"] ;
335 -> 336 ;
337 [label=<Satisfaction_Level &le; 0.735<br/>gini = 0.32<br/>samples = 10<br/>value = [8, 2]<br/>class = y<SUB>0</SUB>>, fillcolor="#e58139bf"] ;
335 -> 337 ;
338 [label=<gini = 0.0<br/>samples = 7<br/>value = [7, 0]<br/>class = y<SUB>0</SUB>>, fillcolor="#e58139ff"] ;
337 -> 338 ;
339 [label=<Average_Montly_Hours &le; 191.5<br/>gini = 0.4444<br/>samples = 3<br/>value = [1, 2]<br/>class = y<SUB>1</SUB>>, fillcolor="#399de57f"] ;
337 -> 339 ;
340 [label=<gini = 0.0<br/>samples = 1<br/>value = [1, 0]<br/>class = y<SUB>0</SUB>>, fillcolor="#e58139ff"] ;
339 -> 340 ;
341 [label=<gini = 0.0<br/>samples = 2<br/>value = [0, 2]<br/>class = y<SUB>1</SUB>>, fillcolor="#399de5ff"] ;
339 -> 341 ;
342 [label=<gini = 0.0<br/>samples = 584<br/>value = [584, 0]<br/>class = y<SUB>0</SUB>>, fillcolor="#e58139ff"] ;
334 -> 342 ;
343 [label=<Satisfaction_Level &le; 0.715<br/>gini = 0.1653<br/>samples = 11<br/>value = [10, 1]<br/>class = y<SUB>0</SUB>>, fillcolor="#e58139e6"] ;
333 -> 343 ;
344 [label=<gini = 0.0<br/>samples = 9<br/>value = [9, 0]<br/>class = y<SUB>0</SUB>>, fillcolor="#e58139ff"] ;
343 -> 344 ;
345 [label=<Average_Montly_Hours &le; 157.5<br/>gini = 0.5<br/>samples = 2<br/>value = [1, 1]<br/>class = y<SUB>0</SUB>>, fillcolor="#e5813900"] ;
343 -> 345 ;
346 [label=<gini = 0.0<br/>samples = 1<br/>value = [1, 0]<br/>class = y<SUB>0</SUB>>, fillcolor="#e58139ff"] ;
345 -> 346 ;
347 [label=<gini = 0.0<br/>samples = 1<br/>value = [0, 1]<br/>class = y<SUB>1</SUB>>, fillcolor="#399de5ff"] ;
345 -> 347 ;
348 [label=<Last_Evaluation &le; 0.465<br/>gini = 0.1057<br/>samples = 125<br/>value = [118, 7]<br/>class = y<SUB>0</SUB>>, fillcolor="#e58139f0"] ;
306 -> 348 ;
349 [label=<gini = 0.0<br/>samples = 1<br/>value = [0, 1]<br/>class = y<SUB>1</SUB>>, fillcolor="#399de5ff"] ;
348 -> 349 ;
350 [label=<Average_Montly_Hours &le; 267.5<br/>gini = 0.0921<br/>samples = 124<br/>value = [118, 6]<br/>class = y<SUB>0</SUB>>, fillcolor="#e58139f2"] ;
348 -> 350 ;
351 [label=<Number_Projects &le; 3.5<br/>gini = 0.0517<br/>samples = 113<br/>value = [110, 3]<br/>class = y<SUB>0</SUB>>, fillcolor="#e58139f8"] ;
350 -> 351 ;
352 [label=<Satisfaction_Level &le; 0.785<br/>gini = 0.1356<br/>samples = 41<br/>value = [38, 3]<br/>class = y<SUB>0</SUB>>, fillcolor="#e58139eb"] ;
351 -> 352 ;
353 [label=<Salary &le; 0.5<br/>gini = 0.2659<br/>samples = 19<br/>value = [16, 3]<br/>class = y<SUB>0</SUB>>, fillcolor="#e58139cf"] ;
352 -> 353 ;
354 [label=<Last_Evaluation &le; 0.655<br/>gini = 0.4444<br/>samples = 9<br/>value = [6, 3]<br/>class = y<SUB>0</SUB>>, fillcolor="#e581397f"] ;
353 -> 354 ;
355 [label=<gini = 0.0<br/>samples = 4<br/>value = [4, 0]<br/>class = y<SUB>0</SUB>>, fillcolor="#e58139ff"] ;
354 -> 355 ;
356 [label=<Last_Evaluation &le; 0.725<br/>gini = 0.48<br/>samples = 5<br/>value = [2, 3]<br/>class = y<SUB>1</SUB>>, fillcolor="#399de555"] ;
354 -> 356 ;
357 [label=<gini = 0.0<br/>samples = 2<br/>value = [0, 2]<br/>class = y<SUB>1</SUB>>, fillcolor="#399de5ff"] ;
356 -> 357 ;
358 [label=<Average_Montly_Hours &le; 212.5<br/>gini = 0.4444<br/>samples = 3<br/>value = [2, 1]<br/>class = y<SUB>0</SUB>>, fillcolor="#e581397f"] ;
356 -> 358 ;
359 [label=<gini = 0.0<br/>samples = 2<br/>value = [2, 0]<br/>class = y<SUB>0</SUB>>, fillcolor="#e58139ff"] ;
358 -> 359 ;
360 [label=<gini = 0.0<br/>samples = 1<br/>value = [0, 1]<br/>class = y<SUB>1</SUB>>, fillcolor="#399de5ff"] ;
358 -> 360 ;
361 [label=<gini = 0.0<br/>samples = 10<br/>value = [10, 0]<br/>class = y<SUB>0</SUB>>, fillcolor="#e58139ff"] ;
353 -> 361 ;
362 [label=<gini = 0.0<br/>samples = 22<br/>value = [22, 0]<br/>class = y<SUB>0</SUB>>, fillcolor="#e58139ff"] ;
352 -> 362 ;
363 [label=<gini = 0.0<br/>samples = 72<br/>value = [72, 0]<br/>class = y<SUB>0</SUB>>, fillcolor="#e58139ff"] ;
351 -> 363 ;
364 [label=<Average_Montly_Hours &le; 268.5<br/>gini = 0.3967<br/>samples = 11<br/>value = [8, 3]<br/>class = y<SUB>0</SUB>>, fillcolor="#e581399f"] ;
350 -> 364 ;
365 [label=<Last_Evaluation &le; 0.68<br/>gini = 0.375<br/>samples = 4<br/>value = [1, 3]<br/>class = y<SUB>1</SUB>>, fillcolor="#399de5aa"] ;
364 -> 365 ;
366 [label=<gini = 0.0<br/>samples = 1<br/>value = [1, 0]<br/>class = y<SUB>0</SUB>>, fillcolor="#e58139ff"] ;
365 -> 366 ;
367 [label=<gini = 0.0<br/>samples = 3<br/>value = [0, 3]<br/>class = y<SUB>1</SUB>>, fillcolor="#399de5ff"] ;
365 -> 367 ;
368 [label=<gini = 0.0<br/>samples = 7<br/>value = [7, 0]<br/>class = y<SUB>0</SUB>>, fillcolor="#e58139ff"] ;
364 -> 368 ;
369 [label=<gini = 0.0<br/>samples = 332<br/>value = [332, 0]<br/>class = y<SUB>0</SUB>>, fillcolor="#e58139ff"] ;
305 -> 369 ;
370 [label=<Promotion_Last_5_Years &le; 0.5<br/>gini = 0.0095<br/>samples = 4210<br/>value = [4190, 20]<br/>class = y<SUB>0</SUB>>, fillcolor="#e58139fe"] ;
304 -> 370 ;
371 [label=<Satisfaction_Level &le; 0.845<br/>gini = 0.0082<br/>samples = 4133<br/>value = [4116, 17]<br/>class = y<SUB>0</SUB>>, fillcolor="#e58139fe"] ;
370 -> 371 ;
372 [label=<Satisfaction_Level &le; 0.635<br/>gini = 0.0055<br/>samples = 3603<br/>value = [3593, 10]<br/>class = y<SUB>0</SUB>>, fillcolor="#e58139fe"] ;
371 -> 372 ;
373 [label=<Department &le; 7.5<br/>gini = 0.0128<br/>samples = 1555<br/>value = [1545, 10]<br/>class = y<SUB>0</SUB>>, fillcolor="#e58139fd"] ;
372 -> 373 ;
374 [label=<Average_Montly_Hours &le; 138.5<br/>gini = 0.0088<br/>samples = 1361<br/>value = [1355, 6]<br/>class = y<SUB>0</SUB>>, fillcolor="#e58139fe"] ;
373 -> 374 ;
375 [label=<Satisfaction_Level &le; 0.515<br/>gini = 0.0444<br/>samples = 88<br/>value = [86, 2]<br/>class = y<SUB>0</SUB>>, fillcolor="#e58139f9"] ;
374 -> 375 ;
376 [label=<Average_Montly_Hours &le; 137.5<br/>gini = 0.1528<br/>samples = 24<br/>value = [22, 2]<br/>class = y<SUB>0</SUB>>, fillcolor="#e58139e8"] ;
375 -> 376 ;
377 [label=<Satisfaction_Level &le; 0.505<br/>gini = 0.0832<br/>samples = 23<br/>value = [22, 1]<br/>class = y<SUB>0</SUB>>, fillcolor="#e58139f3"] ;
376 -> 377 ;
378 [label=<gini = 0.0<br/>samples = 17<br/>value = [17, 0]<br/>class = y<SUB>0</SUB>>, fillcolor="#e58139ff"] ;
377 -> 378 ;
379 [label=<Department &le; 1.5<br/>gini = 0.2778<br/>samples = 6<br/>value = [5, 1]<br/>class = y<SUB>0</SUB>>, fillcolor="#e58139cc"] ;
377 -> 379 ;
380 [label=<gini = 0.0<br/>samples = 1<br/>value = [0, 1]<br/>class = y<SUB>1</SUB>>, fillcolor="#399de5ff"] ;
379 -> 380 ;
381 [label=<gini = 0.0<br/>samples = 5<br/>value = [5, 0]<br/>class = y<SUB>0</SUB>>, fillcolor="#e58139ff"] ;
379 -> 381 ;
382 [label=<gini = 0.0<br/>samples = 1<br/>value = [0, 1]<br/>class = y<SUB>1</SUB>>, fillcolor="#399de5ff"] ;
376 -> 382 ;
383 [label=<gini = 0.0<br/>samples = 64<br/>value = [64, 0]<br/>class = y<SUB>0</SUB>>, fillcolor="#e58139ff"] ;
375 -> 383 ;
384 [label=<Average_Montly_Hours &le; 243.5<br/>gini = 0.0063<br/>samples = 1273<br/>value = [1269, 4]<br/>class = y<SUB>0</SUB>>, fillcolor="#e58139fe"] ;
374 -> 384 ;
385 [label=<Satisfaction_Level &le; 0.625<br/>gini = 0.0021<br/>samples = 946<br/>value = [945, 1]<br/>class = y<SUB>0</SUB>>, fillcolor="#e58139ff"] ;
384 -> 385 ;
386 [label=<gini = 0.0<br/>samples = 871<br/>value = [871, 0]<br/>class = y<SUB>0</SUB>>, fillcolor="#e58139ff"] ;
385 -> 386 ;
387 [label=<Last_Evaluation &le; 0.935<br/>gini = 0.0263<br/>samples = 75<br/>value = [74, 1]<br/>class = y<SUB>0</SUB>>, fillcolor="#e58139fc"] ;
385 -> 387 ;
388 [label=<gini = 0.0<br/>samples = 64<br/>value = [64, 0]<br/>class = y<SUB>0</SUB>>, fillcolor="#e58139ff"] ;
387 -> 388 ;
389 [label=<Number_Projects &le; 3.5<br/>gini = 0.1653<br/>samples = 11<br/>value = [10, 1]<br/>class = y<SUB>0</SUB>>, fillcolor="#e58139e6"] ;
387 -> 389 ;
390 [label=<Average_Montly_Hours &le; 161.5<br/>gini = 0.4444<br/>samples = 3<br/>value = [2, 1]<br/>class = y<SUB>0</SUB>>, fillcolor="#e581397f"] ;
389 -> 390 ;
391 [label=<gini = 0.0<br/>samples = 1<br/>value = [1, 0]<br/>class = y<SUB>0</SUB>>, fillcolor="#e58139ff"] ;
390 -> 391 ;
392 [label=<Time_Spend_Company &le; 2.5<br/>gini = 0.5<br/>samples = 2<br/>value = [1, 1]<br/>class = y<SUB>0</SUB>>, fillcolor="#e5813900"] ;
390 -> 392 ;
393 [label=<gini = 0.0<br/>samples = 1<br/>value = [0, 1]<br/>class = y<SUB>1</SUB>>, fillcolor="#399de5ff"] ;
392 -> 393 ;
394 [label=<gini = 0.0<br/>samples = 1<br/>value = [1, 0]<br/>class = y<SUB>0</SUB>>, fillcolor="#e58139ff"] ;
392 -> 394 ;
395 [label=<gini = 0.0<br/>samples = 8<br/>value = [8, 0]<br/>class = y<SUB>0</SUB>>, fillcolor="#e58139ff"] ;
389 -> 395 ;
396 [label=<Average_Montly_Hours &le; 244.5<br/>gini = 0.0182<br/>samples = 327<br/>value = [324, 3]<br/>class = y<SUB>0</SUB>>, fillcolor="#e58139fd"] ;
384 -> 396 ;
397 [label=<Satisfaction_Level &le; 0.515<br/>gini = 0.2188<br/>samples = 8<br/>value = [7, 1]<br/>class = y<SUB>0</SUB>>, fillcolor="#e58139db"] ;
396 -> 397 ;
398 [label=<gini = 0.0<br/>samples = 1<br/>value = [0, 1]<br/>class = y<SUB>1</SUB>>, fillcolor="#399de5ff"] ;
397 -> 398 ;
399 [label=<gini = 0.0<br/>samples = 7<br/>value = [7, 0]<br/>class = y<SUB>0</SUB>>, fillcolor="#e58139ff"] ;
397 -> 399 ;
400 [label=<Average_Montly_Hours &le; 252.5<br/>gini = 0.0125<br/>samples = 319<br/>value = [317, 2]<br/>class = y<SUB>0</SUB>>, fillcolor="#e58139fd"] ;
396 -> 400 ;
401 [label=<Last_Evaluation &le; 0.845<br/>gini = 0.0494<br/>samples = 79<br/>value = [77, 2]<br/>class = y<SUB>0</SUB>>, fillcolor="#e58139f8"] ;
400 -> 401 ;
402 [label=<gini = 0.0<br/>samples = 52<br/>value = [52, 0]<br/>class = y<SUB>0</SUB>>, fillcolor="#e58139ff"] ;
401 -> 402 ;
403 [label=<Last_Evaluation &le; 0.865<br/>gini = 0.1372<br/>samples = 27<br/>value = [25, 2]<br/>class = y<SUB>0</SUB>>, fillcolor="#e58139eb"] ;
401 -> 403 ;
404 [label=<Average_Montly_Hours &le; 249.5<br/>gini = 0.4082<br/>samples = 7<br/>value = [5, 2]<br/>class = y<SUB>0</SUB>>, fillcolor="#e5813999"] ;
403 -> 404 ;
405 [label=<gini = 0.0<br/>samples = 5<br/>value = [5, 0]<br/>class = y<SUB>0</SUB>>, fillcolor="#e58139ff"] ;
404 -> 405 ;
406 [label=<gini = 0.0<br/>samples = 2<br/>value = [0, 2]<br/>class = y<SUB>1</SUB>>, fillcolor="#399de5ff"] ;
404 -> 406 ;
407 [label=<gini = 0.0<br/>samples = 20<br/>value = [20, 0]<br/>class = y<SUB>0</SUB>>, fillcolor="#e58139ff"] ;
403 -> 407 ;
408 [label=<gini = 0.0<br/>samples = 240<br/>value = [240, 0]<br/>class = y<SUB>0</SUB>>, fillcolor="#e58139ff"] ;
400 -> 408 ;
409 [label=<Satisfaction_Level &le; 0.575<br/>gini = 0.0404<br/>samples = 194<br/>value = [190, 4]<br/>class = y<SUB>0</SUB>>, fillcolor="#e58139fa"] ;
373 -> 409 ;
410 [label=<gini = 0.0<br/>samples = 119<br/>value = [119, 0]<br/>class = y<SUB>0</SUB>>, fillcolor="#e58139ff"] ;
409 -> 410 ;
411 [label=<Satisfaction_Level &le; 0.585<br/>gini = 0.101<br/>samples = 75<br/>value = [71, 4]<br/>class = y<SUB>0</SUB>>, fillcolor="#e58139f1"] ;
409 -> 411 ;
412 [label=<Average_Montly_Hours &le; 236.5<br/>gini = 0.3047<br/>samples = 16<br/>value = [13, 3]<br/>class = y<SUB>0</SUB>>, fillcolor="#e58139c4"] ;
411 -> 412 ;
413 [label=<gini = 0.0<br/>samples = 13<br/>value = [13, 0]<br/>class = y<SUB>0</SUB>>, fillcolor="#e58139ff"] ;
412 -> 413 ;
414 [label=<gini = 0.0<br/>samples = 3<br/>value = [0, 3]<br/>class = y<SUB>1</SUB>>, fillcolor="#399de5ff"] ;
412 -> 414 ;
415 [label=<Satisfaction_Level &le; 0.625<br/>gini = 0.0333<br/>samples = 59<br/>value = [58, 1]<br/>class = y<SUB>0</SUB>>, fillcolor="#e58139fb"] ;
411 -> 415 ;
416 [label=<gini = 0.0<br/>samples = 47<br/>value = [47, 0]<br/>class = y<SUB>0</SUB>>, fillcolor="#e58139ff"] ;
415 -> 416 ;
417 [label=<Average_Montly_Hours &le; 167.5<br/>gini = 0.1528<br/>samples = 12<br/>value = [11, 1]<br/>class = y<SUB>0</SUB>>, fillcolor="#e58139e8"] ;
415 -> 417 ;
418 [label=<Salary &le; 1.5<br/>gini = 0.4444<br/>samples = 3<br/>value = [2, 1]<br/>class = y<SUB>0</SUB>>, fillcolor="#e581397f"] ;
417 -> 418 ;
419 [label=<gini = 0.0<br/>samples = 1<br/>value = [0, 1]<br/>class = y<SUB>1</SUB>>, fillcolor="#399de5ff"] ;
418 -> 419 ;
420 [label=<gini = 0.0<br/>samples = 2<br/>value = [2, 0]<br/>class = y<SUB>0</SUB>>, fillcolor="#e58139ff"] ;
418 -> 420 ;
421 [label=<gini = 0.0<br/>samples = 9<br/>value = [9, 0]<br/>class = y<SUB>0</SUB>>, fillcolor="#e58139ff"] ;
417 -> 421 ;
422 [label=<gini = 0.0<br/>samples = 2048<br/>value = [2048, 0]<br/>class = y<SUB>0</SUB>>, fillcolor="#e58139ff"] ;
372 -> 422 ;
423 [label=<Average_Montly_Hours &le; 262.5<br/>gini = 0.0261<br/>samples = 530<br/>value = [523, 7]<br/>class = y<SUB>0</SUB>>, fillcolor="#e58139fc"] ;
371 -> 423 ;
424 [label=<Satisfaction_Level &le; 0.855<br/>gini = 0.0127<br/>samples = 471<br/>value = [468, 3]<br/>class = y<SUB>0</SUB>>, fillcolor="#e58139fd"] ;
423 -> 424 ;
425 [label=<Last_Evaluation &le; 0.585<br/>gini = 0.0487<br/>samples = 80<br/>value = [78, 2]<br/>class = y<SUB>0</SUB>>, fillcolor="#e58139f8"] ;
424 -> 425 ;
426 [label=<Last_Evaluation &le; 0.575<br/>gini = 0.2076<br/>samples = 17<br/>value = [15, 2]<br/>class = y<SUB>0</SUB>>, fillcolor="#e58139dd"] ;
425 -> 426 ;
427 [label=<gini = 0.0<br/>samples = 15<br/>value = [15, 0]<br/>class = y<SUB>0</SUB>>, fillcolor="#e58139ff"] ;
426 -> 427 ;
428 [label=<gini = 0.0<br/>samples = 2<br/>value = [0, 2]<br/>class = y<SUB>1</SUB>>, fillcolor="#399de5ff"] ;
426 -> 428 ;
429 [label=<gini = 0.0<br/>samples = 63<br/>value = [63, 0]<br/>class = y<SUB>0</SUB>>, fillcolor="#e58139ff"] ;
425 -> 429 ;
430 [label=<Average_Montly_Hours &le; 149.5<br/>gini = 0.0051<br/>samples = 391<br/>value = [390, 1]<br/>class = y<SUB>0</SUB>>, fillcolor="#e58139fe"] ;
424 -> 430 ;
431 [label=<Average_Montly_Hours &le; 148.5<br/>gini = 0.0339<br/>samples = 58<br/>value = [57, 1]<br/>class = y<SUB>0</SUB>>, fillcolor="#e58139fb"] ;
430 -> 431 ;
432 [label=<gini = 0.0<br/>samples = 55<br/>value = [55, 0]<br/>class = y<SUB>0</SUB>>, fillcolor="#e58139ff"] ;
431 -> 432 ;
433 [label=<Last_Evaluation &le; 0.68<br/>gini = 0.4444<br/>samples = 3<br/>value = [2, 1]<br/>class = y<SUB>0</SUB>>, fillcolor="#e581397f"] ;
431 -> 433 ;
434 [label=<gini = 0.0<br/>samples = 2<br/>value = [2, 0]<br/>class = y<SUB>0</SUB>>, fillcolor="#e58139ff"] ;
433 -> 434 ;
435 [label=<gini = 0.0<br/>samples = 1<br/>value = [0, 1]<br/>class = y<SUB>1</SUB>>, fillcolor="#399de5ff"] ;
433 -> 435 ;
436 [label=<gini = 0.0<br/>samples = 333<br/>value = [333, 0]<br/>class = y<SUB>0</SUB>>, fillcolor="#e58139ff"] ;
430 -> 436 ;
437 [label=<Average_Montly_Hours &le; 263.5<br/>gini = 0.1264<br/>samples = 59<br/>value = [55, 4]<br/>class = y<SUB>0</SUB>>, fillcolor="#e58139ec"] ;
423 -> 437 ;
438 [label=<Time_Spend_Company &le; 2.5<br/>gini = 0.3967<br/>samples = 11<br/>value = [8, 3]<br/>class = y<SUB>0</SUB>>, fillcolor="#e581399f"] ;
437 -> 438 ;
439 [label=<Salary &le; 0.5<br/>gini = 0.375<br/>samples = 4<br/>value = [1, 3]<br/>class = y<SUB>1</SUB>>, fillcolor="#399de5aa"] ;
438 -> 439 ;
440 [label=<gini = 0.0<br/>samples = 1<br/>value = [1, 0]<br/>class = y<SUB>0</SUB>>, fillcolor="#e58139ff"] ;
439 -> 440 ;
441 [label=<gini = 0.0<br/>samples = 3<br/>value = [0, 3]<br/>class = y<SUB>1</SUB>>, fillcolor="#399de5ff"] ;
439 -> 441 ;
442 [label=<gini = 0.0<br/>samples = 7<br/>value = [7, 0]<br/>class = y<SUB>0</SUB>>, fillcolor="#e58139ff"] ;
438 -> 442 ;
443 [label=<Last_Evaluation &le; 0.93<br/>gini = 0.0408<br/>samples = 48<br/>value = [47, 1]<br/>class = y<SUB>0</SUB>>, fillcolor="#e58139fa"] ;
437 -> 443 ;
444 [label=<gini = 0.0<br/>samples = 45<br/>value = [45, 0]<br/>class = y<SUB>0</SUB>>, fillcolor="#e58139ff"] ;
443 -> 444 ;
445 [label=<Department &le; 6.5<br/>gini = 0.4444<br/>samples = 3<br/>value = [2, 1]<br/>class = y<SUB>0</SUB>>, fillcolor="#e581397f"] ;
443 -> 445 ;
446 [label=<gini = 0.0<br/>samples = 2<br/>value = [2, 0]<br/>class = y<SUB>0</SUB>>, fillcolor="#e58139ff"] ;
445 -> 446 ;
447 [label=<gini = 0.0<br/>samples = 1<br/>value = [0, 1]<br/>class = y<SUB>1</SUB>>, fillcolor="#399de5ff"] ;
445 -> 447 ;
448 [label=<Average_Montly_Hours &le; 140.5<br/>gini = 0.0749<br/>samples = 77<br/>value = [74, 3]<br/>class = y<SUB>0</SUB>>, fillcolor="#e58139f5"] ;
370 -> 448 ;
449 [label=<Department &le; 8.0<br/>gini = 0.42<br/>samples = 10<br/>value = [7, 3]<br/>class = y<SUB>0</SUB>>, fillcolor="#e5813992"] ;
448 -> 449 ;
450 [label=<gini = 0.0<br/>samples = 7<br/>value = [7, 0]<br/>class = y<SUB>0</SUB>>, fillcolor="#e58139ff"] ;
449 -> 450 ;
451 [label=<gini = 0.0<br/>samples = 3<br/>value = [0, 3]<br/>class = y<SUB>1</SUB>>, fillcolor="#399de5ff"] ;
449 -> 451 ;
452 [label=<gini = 0.0<br/>samples = 67<br/>value = [67, 0]<br/>class = y<SUB>0</SUB>>, fillcolor="#e58139ff"] ;
448 -> 452 ;
453 [label=<gini = 0.0<br/>samples = 1199<br/>value = [1199, 0]<br/>class = y<SUB>0</SUB>>, fillcolor="#e58139ff"] ;
303 -> 453 ;
454 [label=<Satisfaction_Level &le; 0.485<br/>gini = 0.0646<br/>samples = 1316<br/>value = [1272, 44]<br/>class = y<SUB>0</SUB>>, fillcolor="#e58139f6"] ;
258 -> 454 ;
455 [label=<Average_Montly_Hours &le; 247.5<br/>gini = 0.3457<br/>samples = 27<br/>value = [21, 6]<br/>class = y<SUB>0</SUB>>, fillcolor="#e58139b6"] ;
454 -> 455 ;
456 [label=<gini = 0.0<br/>samples = 20<br/>value = [20, 0]<br/>class = y<SUB>0</SUB>>, fillcolor="#e58139ff"] ;
455 -> 456 ;
457 [label=<Number_Projects &le; 3.5<br/>gini = 0.2449<br/>samples = 7<br/>value = [1, 6]<br/>class = y<SUB>1</SUB>>, fillcolor="#399de5d4"] ;
455 -> 457 ;
458 [label=<gini = 0.0<br/>samples = 1<br/>value = [1, 0]<br/>class = y<SUB>0</SUB>>, fillcolor="#e58139ff"] ;
457 -> 458 ;
459 [label=<gini = 0.0<br/>samples = 6<br/>value = [0, 6]<br/>class = y<SUB>1</SUB>>, fillcolor="#399de5ff"] ;
457 -> 459 ;
460 [label=<Satisfaction_Level &le; 0.905<br/>gini = 0.0572<br/>samples = 1289<br/>value = [1251, 38]<br/>class = y<SUB>0</SUB>>, fillcolor="#e58139f7"] ;
454 -> 460 ;
461 [label=<Last_Evaluation &le; 0.805<br/>gini = 0.0694<br/>samples = 1055<br/>value = [1017, 38]<br/>class = y<SUB>0</SUB>>, fillcolor="#e58139f5"] ;
460 -> 461 ;
462 [label=<Average_Montly_Hours &le; 273.5<br/>gini = 0.0494<br/>samples = 671<br/>value = [654, 17]<br/>class = y<SUB>0</SUB>>, fillcolor="#e58139f8"] ;
461 -> 462 ;
463 [label=<Satisfaction_Level &le; 0.895<br/>gini = 0.042<br/>samples = 653<br/>value = [639, 14]<br/>class = y<SUB>0</SUB>>, fillcolor="#e58139f9"] ;
462 -> 463 ;
464 [label=<Satisfaction_Level &le; 0.635<br/>gini = 0.0371<br/>samples = 634<br/>value = [622, 12]<br/>class = y<SUB>0</SUB>>, fillcolor="#e58139fa"] ;
463 -> 464 ;
465 [label=<Last_Evaluation &le; 0.605<br/>gini = 0.074<br/>samples = 234<br/>value = [225, 9]<br/>class = y<SUB>0</SUB>>, fillcolor="#e58139f5"] ;
464 -> 465 ;
466 [label=<Last_Evaluation &le; 0.595<br/>gini = 0.1202<br/>samples = 109<br/>value = [102, 7]<br/>class = y<SUB>0</SUB>>, fillcolor="#e58139ee"] ;
465 -> 466 ;
467 [label=<Average_Montly_Hours &le; 263.5<br/>gini = 0.0747<br/>samples = 103<br/>value = [99, 4]<br/>class = y<SUB>0</SUB>>, fillcolor="#e58139f5"] ;
466 -> 467 ;
468 [label=<Number_Projects &le; 4.5<br/>gini = 0.0582<br/>samples = 100<br/>value = [97, 3]<br/>class = y<SUB>0</SUB>>, fillcolor="#e58139f7"] ;
467 -> 468 ;
469 [label=<gini = 0.0<br/>samples = 73<br/>value = [73, 0]<br/>class = y<SUB>0</SUB>>, fillcolor="#e58139ff"] ;
468 -> 469 ;
470 [label=<Average_Montly_Hours &le; 157.5<br/>gini = 0.1975<br/>samples = 27<br/>value = [24, 3]<br/>class = y<SUB>0</SUB>>, fillcolor="#e58139df"] ;
468 -> 470 ;
471 [label=<Average_Montly_Hours &le; 149.5<br/>gini = 0.5<br/>samples = 4<br/>value = [2, 2]<br/>class = y<SUB>0</SUB>>, fillcolor="#e5813900"] ;
470 -> 471 ;
472 [label=<gini = 0.0<br/>samples = 2<br/>value = [2, 0]<br/>class = y<SUB>0</SUB>>, fillcolor="#e58139ff"] ;
471 -> 472 ;
473 [label=<gini = 0.0<br/>samples = 2<br/>value = [0, 2]<br/>class = y<SUB>1</SUB>>, fillcolor="#399de5ff"] ;
471 -> 473 ;
474 [label=<Satisfaction_Level &le; 0.605<br/>gini = 0.0832<br/>samples = 23<br/>value = [22, 1]<br/>class = y<SUB>0</SUB>>, fillcolor="#e58139f3"] ;
470 -> 474 ;
475 [label=<gini = 0.0<br/>samples = 20<br/>value = [20, 0]<br/>class = y<SUB>0</SUB>>, fillcolor="#e58139ff"] ;
474 -> 475 ;
476 [label=<Salary &le; 0.5<br/>gini = 0.4444<br/>samples = 3<br/>value = [2, 1]<br/>class = y<SUB>0</SUB>>, fillcolor="#e581397f"] ;
474 -> 476 ;
477 [label=<gini = 0.0<br/>samples = 1<br/>value = [0, 1]<br/>class = y<SUB>1</SUB>>, fillcolor="#399de5ff"] ;
476 -> 477 ;
478 [label=<gini = 0.0<br/>samples = 2<br/>value = [2, 0]<br/>class = y<SUB>0</SUB>>, fillcolor="#e58139ff"] ;
476 -> 478 ;
479 [label=<Last_Evaluation &le; 0.57<br/>gini = 0.4444<br/>samples = 3<br/>value = [2, 1]<br/>class = y<SUB>0</SUB>>, fillcolor="#e581397f"] ;
467 -> 479 ;
480 [label=<gini = 0.0<br/>samples = 2<br/>value = [2, 0]<br/>class = y<SUB>0</SUB>>, fillcolor="#e58139ff"] ;
479 -> 480 ;
481 [label=<gini = 0.0<br/>samples = 1<br/>value = [0, 1]<br/>class = y<SUB>1</SUB>>, fillcolor="#399de5ff"] ;
479 -> 481 ;
482 [label=<Average_Montly_Hours &le; 164.5<br/>gini = 0.5<br/>samples = 6<br/>value = [3, 3]<br/>class = y<SUB>0</SUB>>, fillcolor="#e5813900"] ;
466 -> 482 ;
483 [label=<gini = 0.0<br/>samples = 2<br/>value = [2, 0]<br/>class = y<SUB>0</SUB>>, fillcolor="#e58139ff"] ;
482 -> 483 ;
484 [label=<Average_Montly_Hours &le; 214.0<br/>gini = 0.375<br/>samples = 4<br/>value = [1, 3]<br/>class = y<SUB>1</SUB>>, fillcolor="#399de5aa"] ;
482 -> 484 ;
485 [label=<gini = 0.0<br/>samples = 3<br/>value = [0, 3]<br/>class = y<SUB>1</SUB>>, fillcolor="#399de5ff"] ;
484 -> 485 ;
486 [label=<gini = 0.0<br/>samples = 1<br/>value = [1, 0]<br/>class = y<SUB>0</SUB>>, fillcolor="#e58139ff"] ;
484 -> 486 ;
487 [label=<Satisfaction_Level &le; 0.615<br/>gini = 0.0315<br/>samples = 125<br/>value = [123, 2]<br/>class = y<SUB>0</SUB>>, fillcolor="#e58139fb"] ;
465 -> 487 ;
488 [label=<gini = 0.0<br/>samples = 102<br/>value = [102, 0]<br/>class = y<SUB>0</SUB>>, fillcolor="#e58139ff"] ;
487 -> 488 ;
489 [label=<Number_Projects &le; 2.5<br/>gini = 0.1588<br/>samples = 23<br/>value = [21, 2]<br/>class = y<SUB>0</SUB>>, fillcolor="#e58139e7"] ;
487 -> 489 ;
490 [label=<gini = 0.0<br/>samples = 1<br/>value = [0, 1]<br/>class = y<SUB>1</SUB>>, fillcolor="#399de5ff"] ;
489 -> 490 ;
491 [label=<Number_Projects &le; 4.5<br/>gini = 0.0868<br/>samples = 22<br/>value = [21, 1]<br/>class = y<SUB>0</SUB>>, fillcolor="#e58139f3"] ;
489 -> 491 ;
492 [label=<gini = 0.0<br/>samples = 17<br/>value = [17, 0]<br/>class = y<SUB>0</SUB>>, fillcolor="#e58139ff"] ;
491 -> 492 ;
493 [label=<Salary &le; 0.5<br/>gini = 0.32<br/>samples = 5<br/>value = [4, 1]<br/>class = y<SUB>0</SUB>>, fillcolor="#e58139bf"] ;
491 -> 493 ;
494 [label=<gini = 0.0<br/>samples = 1<br/>value = [0, 1]<br/>class = y<SUB>1</SUB>>, fillcolor="#399de5ff"] ;
493 -> 494 ;
495 [label=<gini = 0.0<br/>samples = 4<br/>value = [4, 0]<br/>class = y<SUB>0</SUB>>, fillcolor="#e58139ff"] ;
493 -> 495 ;
496 [label=<Satisfaction_Level &le; 0.835<br/>gini = 0.0149<br/>samples = 400<br/>value = [397, 3]<br/>class = y<SUB>0</SUB>>, fillcolor="#e58139fd"] ;
464 -> 496 ;
497 [label=<gini = 0.0<br/>samples = 310<br/>value = [310, 0]<br/>class = y<SUB>0</SUB>>, fillcolor="#e58139ff"] ;
496 -> 497 ;
498 [label=<Satisfaction_Level &le; 0.845<br/>gini = 0.0644<br/>samples = 90<br/>value = [87, 3]<br/>class = y<SUB>0</SUB>>, fillcolor="#e58139f6"] ;
496 -> 498 ;
499 [label=<Last_Evaluation &le; 0.735<br/>gini = 0.2907<br/>samples = 17<br/>value = [14, 3]<br/>class = y<SUB>0</SUB>>, fillcolor="#e58139c8"] ;
498 -> 499 ;
500 [label=<gini = 0.0<br/>samples = 11<br/>value = [11, 0]<br/>class = y<SUB>0</SUB>>, fillcolor="#e58139ff"] ;
499 -> 500 ;
501 [label=<Number_Projects &le; 3.5<br/>gini = 0.5<br/>samples = 6<br/>value = [3, 3]<br/>class = y<SUB>0</SUB>>, fillcolor="#e5813900"] ;
499 -> 501 ;
502 [label=<gini = 0.0<br/>samples = 3<br/>value = [0, 3]<br/>class = y<SUB>1</SUB>>, fillcolor="#399de5ff"] ;
501 -> 502 ;
503 [label=<gini = 0.0<br/>samples = 3<br/>value = [3, 0]<br/>class = y<SUB>0</SUB>>, fillcolor="#e58139ff"] ;
501 -> 503 ;
504 [label=<gini = 0.0<br/>samples = 73<br/>value = [73, 0]<br/>class = y<SUB>0</SUB>>, fillcolor="#e58139ff"] ;
498 -> 504 ;
505 [label=<Number_Projects &le; 4.5<br/>gini = 0.1884<br/>samples = 19<br/>value = [17, 2]<br/>class = y<SUB>0</SUB>>, fillcolor="#e58139e1"] ;
463 -> 505 ;
506 [label=<gini = 0.0<br/>samples = 17<br/>value = [17, 0]<br/>class = y<SUB>0</SUB>>, fillcolor="#e58139ff"] ;
505 -> 506 ;
507 [label=<gini = 0.0<br/>samples = 2<br/>value = [0, 2]<br/>class = y<SUB>1</SUB>>, fillcolor="#399de5ff"] ;
505 -> 507 ;
508 [label=<Number_Projects &le; 2.5<br/>gini = 0.2778<br/>samples = 18<br/>value = [15, 3]<br/>class = y<SUB>0</SUB>>, fillcolor="#e58139cc"] ;
462 -> 508 ;
509 [label=<Department &le; 1.0<br/>gini = 0.48<br/>samples = 5<br/>value = [2, 3]<br/>class = y<SUB>1</SUB>>, fillcolor="#399de555"] ;
508 -> 509 ;
510 [label=<gini = 0.0<br/>samples = 3<br/>value = [0, 3]<br/>class = y<SUB>1</SUB>>, fillcolor="#399de5ff"] ;
509 -> 510 ;
511 [label=<gini = 0.0<br/>samples = 2<br/>value = [2, 0]<br/>class = y<SUB>0</SUB>>, fillcolor="#e58139ff"] ;
509 -> 511 ;
512 [label=<gini = 0.0<br/>samples = 13<br/>value = [13, 0]<br/>class = y<SUB>0</SUB>>, fillcolor="#e58139ff"] ;
508 -> 512 ;
513 [label=<Department &le; 7.5<br/>gini = 0.1034<br/>samples = 384<br/>value = [363, 21]<br/>class = y<SUB>0</SUB>>, fillcolor="#e58139f0"] ;
461 -> 513 ;
514 [label=<Last_Evaluation &le; 0.835<br/>gini = 0.075<br/>samples = 333<br/>value = [320, 13]<br/>class = y<SUB>0</SUB>>, fillcolor="#e58139f5"] ;
513 -> 514 ;
515 [label=<Satisfaction_Level &le; 0.515<br/>gini = 0.2449<br/>samples = 49<br/>value = [42, 7]<br/>class = y<SUB>0</SUB>>, fillcolor="#e58139d4"] ;
514 -> 515 ;
516 [label=<gini = 0.0<br/>samples = 3<br/>value = [0, 3]<br/>class = y<SUB>1</SUB>>, fillcolor="#399de5ff"] ;
515 -> 516 ;
517 [label=<Work_Accident &le; 0.5<br/>gini = 0.1588<br/>samples = 46<br/>value = [42, 4]<br/>class = y<SUB>0</SUB>>, fillcolor="#e58139e7"] ;
515 -> 517 ;
518 [label=<gini = 0.0<br/>samples = 37<br/>value = [37, 0]<br/>class = y<SUB>0</SUB>>, fillcolor="#e58139ff"] ;
517 -> 518 ;
519 [label=<Number_Projects &le; 3.5<br/>gini = 0.4938<br/>samples = 9<br/>value = [5, 4]<br/>class = y<SUB>0</SUB>>, fillcolor="#e5813933"] ;
517 -> 519 ;
520 [label=<gini = 0.0<br/>samples = 4<br/>value = [4, 0]<br/>class = y<SUB>0</SUB>>, fillcolor="#e58139ff"] ;
519 -> 520 ;
521 [label=<Satisfaction_Level &le; 0.705<br/>gini = 0.32<br/>samples = 5<br/>value = [1, 4]<br/>class = y<SUB>1</SUB>>, fillcolor="#399de5bf"] ;
519 -> 521 ;
522 [label=<gini = 0.0<br/>samples = 1<br/>value = [1, 0]<br/>class = y<SUB>0</SUB>>, fillcolor="#e58139ff"] ;
521 -> 522 ;
523 [label=<gini = 0.0<br/>samples = 4<br/>value = [0, 4]<br/>class = y<SUB>1</SUB>>, fillcolor="#399de5ff"] ;
521 -> 523 ;
524 [label=<Average_Montly_Hours &le; 163.0<br/>gini = 0.0414<br/>samples = 284<br/>value = [278, 6]<br/>class = y<SUB>0</SUB>>, fillcolor="#e58139f9"] ;
514 -> 524 ;
525 [label=<Average_Montly_Hours &le; 161.0<br/>gini = 0.1509<br/>samples = 73<br/>value = [67, 6]<br/>class = y<SUB>0</SUB>>, fillcolor="#e58139e8"] ;
524 -> 525 ;
526 [label=<Satisfaction_Level &le; 0.895<br/>gini = 0.1078<br/>samples = 70<br/>value = [66, 4]<br/>class = y<SUB>0</SUB>>, fillcolor="#e58139f0"] ;
525 -> 526 ;
527 [label=<Department &le; 3.5<br/>gini = 0.0855<br/>samples = 67<br/>value = [64, 3]<br/>class = y<SUB>0</SUB>>, fillcolor="#e58139f3"] ;
526 -> 527 ;
528 [label=<Average_Montly_Hours &le; 132.0<br/>gini = 0.0384<br/>samples = 51<br/>value = [50, 1]<br/>class = y<SUB>0</SUB>>, fillcolor="#e58139fa"] ;
527 -> 528 ;
529 [label=<Average_Montly_Hours &le; 130.5<br/>gini = 0.1244<br/>samples = 15<br/>value = [14, 1]<br/>class = y<SUB>0</SUB>>, fillcolor="#e58139ed"] ;
528 -> 529 ;
530 [label=<gini = 0.0<br/>samples = 14<br/>value = [14, 0]<br/>class = y<SUB>0</SUB>>, fillcolor="#e58139ff"] ;
529 -> 530 ;
531 [label=<gini = 0.0<br/>samples = 1<br/>value = [0, 1]<br/>class = y<SUB>1</SUB>>, fillcolor="#399de5ff"] ;
529 -> 531 ;
532 [label=<gini = 0.0<br/>samples = 36<br/>value = [36, 0]<br/>class = y<SUB>0</SUB>>, fillcolor="#e58139ff"] ;
528 -> 532 ;
533 [label=<Last_Evaluation &le; 0.99<br/>gini = 0.2188<br/>samples = 16<br/>value = [14, 2]<br/>class = y<SUB>0</SUB>>, fillcolor="#e58139db"] ;
527 -> 533 ;
534 [label=<Department &le; 4.5<br/>gini = 0.1244<br/>samples = 15<br/>value = [14, 1]<br/>class = y<SUB>0</SUB>>, fillcolor="#e58139ed"] ;
533 -> 534 ;
535 [label=<Number_Projects &le; 3.5<br/>gini = 0.4444<br/>samples = 3<br/>value = [2, 1]<br/>class = y<SUB>0</SUB>>, fillcolor="#e581397f"] ;
534 -> 535 ;
536 [label=<gini = 0.0<br/>samples = 2<br/>value = [2, 0]<br/>class = y<SUB>0</SUB>>, fillcolor="#e58139ff"] ;
535 -> 536 ;
537 [label=<gini = 0.0<br/>samples = 1<br/>value = [0, 1]<br/>class = y<SUB>1</SUB>>, fillcolor="#399de5ff"] ;
535 -> 537 ;
538 [label=<gini = 0.0<br/>samples = 12<br/>value = [12, 0]<br/>class = y<SUB>0</SUB>>, fillcolor="#e58139ff"] ;
534 -> 538 ;
539 [label=<gini = 0.0<br/>samples = 1<br/>value = [0, 1]<br/>class = y<SUB>1</SUB>>, fillcolor="#399de5ff"] ;
533 -> 539 ;
540 [label=<Salary &le; 0.5<br/>gini = 0.4444<br/>samples = 3<br/>value = [2, 1]<br/>class = y<SUB>0</SUB>>, fillcolor="#e581397f"] ;
526 -> 540 ;
541 [label=<gini = 0.0<br/>samples = 1<br/>value = [0, 1]<br/>class = y<SUB>1</SUB>>, fillcolor="#399de5ff"] ;
540 -> 541 ;
542 [label=<gini = 0.0<br/>samples = 2<br/>value = [2, 0]<br/>class = y<SUB>0</SUB>>, fillcolor="#e58139ff"] ;
540 -> 542 ;
543 [label=<Department &le; 1.5<br/>gini = 0.4444<br/>samples = 3<br/>value = [1, 2]<br/>class = y<SUB>1</SUB>>, fillcolor="#399de57f"] ;
525 -> 543 ;
544 [label=<gini = 0.0<br/>samples = 2<br/>value = [0, 2]<br/>class = y<SUB>1</SUB>>, fillcolor="#399de5ff"] ;
543 -> 544 ;
545 [label=<gini = 0.0<br/>samples = 1<br/>value = [1, 0]<br/>class = y<SUB>0</SUB>>, fillcolor="#e58139ff"] ;
543 -> 545 ;
546 [label=<gini = 0.0<br/>samples = 211<br/>value = [211, 0]<br/>class = y<SUB>0</SUB>>, fillcolor="#e58139ff"] ;
524 -> 546 ;
547 [label=<Last_Evaluation &le; 0.885<br/>gini = 0.2645<br/>samples = 51<br/>value = [43, 8]<br/>class = y<SUB>0</SUB>>, fillcolor="#e58139d0"] ;
513 -> 547 ;
548 [label=<Last_Evaluation &le; 0.855<br/>gini = 0.4234<br/>samples = 23<br/>value = [16, 7]<br/>class = y<SUB>0</SUB>>, fillcolor="#e581398f"] ;
547 -> 548 ;
549 [label=<gini = 0.0<br/>samples = 12<br/>value = [12, 0]<br/>class = y<SUB>0</SUB>>, fillcolor="#e58139ff"] ;
548 -> 549 ;
550 [label=<Satisfaction_Level &le; 0.56<br/>gini = 0.4628<br/>samples = 11<br/>value = [4, 7]<br/>class = y<SUB>1</SUB>>, fillcolor="#399de56d"] ;
548 -> 550 ;
551 [label=<gini = 0.0<br/>samples = 2<br/>value = [2, 0]<br/>class = y<SUB>0</SUB>>, fillcolor="#e58139ff"] ;
550 -> 551 ;
552 [label=<Satisfaction_Level &le; 0.81<br/>gini = 0.3457<br/>samples = 9<br/>value = [2, 7]<br/>class = y<SUB>1</SUB>>, fillcolor="#399de5b6"] ;
550 -> 552 ;
553 [label=<gini = 0.0<br/>samples = 7<br/>value = [0, 7]<br/>class = y<SUB>1</SUB>>, fillcolor="#399de5ff"] ;
552 -> 553 ;
554 [label=<gini = 0.0<br/>samples = 2<br/>value = [2, 0]<br/>class = y<SUB>0</SUB>>, fillcolor="#e58139ff"] ;
552 -> 554 ;
555 [label=<Average_Montly_Hours &le; 245.0<br/>gini = 0.0689<br/>samples = 28<br/>value = [27, 1]<br/>class = y<SUB>0</SUB>>, fillcolor="#e58139f6"] ;
547 -> 555 ;
556 [label=<gini = 0.0<br/>samples = 24<br/>value = [24, 0]<br/>class = y<SUB>0</SUB>>, fillcolor="#e58139ff"] ;
555 -> 556 ;
557 [label=<Last_Evaluation &le; 0.92<br/>gini = 0.375<br/>samples = 4<br/>value = [3, 1]<br/>class = y<SUB>0</SUB>>, fillcolor="#e58139aa"] ;
555 -> 557 ;
558 [label=<gini = 0.0<br/>samples = 1<br/>value = [0, 1]<br/>class = y<SUB>1</SUB>>, fillcolor="#399de5ff"] ;
557 -> 558 ;
559 [label=<gini = 0.0<br/>samples = 3<br/>value = [3, 0]<br/>class = y<SUB>0</SUB>>, fillcolor="#e58139ff"] ;
557 -> 559 ;
560 [label=<gini = 0.0<br/>samples = 234<br/>value = [234, 0]<br/>class = y<SUB>0</SUB>>, fillcolor="#e58139ff"] ;
460 -> 560 ;
561 [label=<Last_Evaluation &le; 0.695<br/>gini = 0.1769<br/>samples = 153<br/>value = [138, 15]<br/>class = y<SUB>0</SUB>>, fillcolor="#e58139e3"] ;
257 -> 561 ;
562 [label=<Satisfaction_Level &le; 0.505<br/>gini = 0.0267<br/>samples = 74<br/>value = [73, 1]<br/>class = y<SUB>0</SUB>>, fillcolor="#e58139fc"] ;
561 -> 562 ;
563 [label=<Last_Evaluation &le; 0.585<br/>gini = 0.32<br/>samples = 5<br/>value = [4, 1]<br/>class = y<SUB>0</SUB>>, fillcolor="#e58139bf"] ;
562 -> 563 ;
564 [label=<gini = 0.0<br/>samples = 3<br/>value = [3, 0]<br/>class = y<SUB>0</SUB>>, fillcolor="#e58139ff"] ;
563 -> 564 ;
565 [label=<Average_Montly_Hours &le; 275.5<br/>gini = 0.5<br/>samples = 2<br/>value = [1, 1]<br/>class = y<SUB>0</SUB>>, fillcolor="#e5813900"] ;
563 -> 565 ;
566 [label=<gini = 0.0<br/>samples = 1<br/>value = [0, 1]<br/>class = y<SUB>1</SUB>>, fillcolor="#399de5ff"] ;
565 -> 566 ;
567 [label=<gini = 0.0<br/>samples = 1<br/>value = [1, 0]<br/>class = y<SUB>0</SUB>>, fillcolor="#e58139ff"] ;
565 -> 567 ;
568 [label=<gini = 0.0<br/>samples = 69<br/>value = [69, 0]<br/>class = y<SUB>0</SUB>>, fillcolor="#e58139ff"] ;
562 -> 568 ;
569 [label=<Last_Evaluation &le; 0.995<br/>gini = 0.2916<br/>samples = 79<br/>value = [65, 14]<br/>class = y<SUB>0</SUB>>, fillcolor="#e58139c8"] ;
561 -> 569 ;
570 [label=<Satisfaction_Level &le; 0.825<br/>gini = 0.2659<br/>samples = 76<br/>value = [64, 12]<br/>class = y<SUB>0</SUB>>, fillcolor="#e58139cf"] ;
569 -> 570 ;
571 [label=<Satisfaction_Level &le; 0.805<br/>gini = 0.3324<br/>samples = 57<br/>value = [45, 12]<br/>class = y<SUB>0</SUB>>, fillcolor="#e58139bb"] ;
570 -> 571 ;
572 [label=<Salary &le; 0.5<br/>gini = 0.282<br/>samples = 53<br/>value = [44, 9]<br/>class = y<SUB>0</SUB>>, fillcolor="#e58139cb"] ;
571 -> 572 ;
573 [label=<Time_Spend_Company &le; 2.5<br/>gini = 0.417<br/>samples = 27<br/>value = [19, 8]<br/>class = y<SUB>0</SUB>>, fillcolor="#e5813994"] ;
572 -> 573 ;
574 [label=<Last_Evaluation &le; 0.895<br/>gini = 0.4444<br/>samples = 6<br/>value = [2, 4]<br/>class = y<SUB>1</SUB>>, fillcolor="#399de57f"] ;
573 -> 574 ;
575 [label=<gini = 0.0<br/>samples = 2<br/>value = [2, 0]<br/>class = y<SUB>0</SUB>>, fillcolor="#e58139ff"] ;
574 -> 575 ;
576 [label=<gini = 0.0<br/>samples = 4<br/>value = [0, 4]<br/>class = y<SUB>1</SUB>>, fillcolor="#399de5ff"] ;
574 -> 576 ;
577 [label=<Average_Montly_Hours &le; 214.5<br/>gini = 0.3084<br/>samples = 21<br/>value = [17, 4]<br/>class = y<SUB>0</SUB>>, fillcolor="#e58139c3"] ;
573 -> 577 ;
578 [label=<Satisfaction_Level &le; 0.68<br/>gini = 0.426<br/>samples = 13<br/>value = [9, 4]<br/>class = y<SUB>0</SUB>>, fillcolor="#e581398e"] ;
577 -> 578 ;
579 [label=<Average_Montly_Hours &le; 188.0<br/>gini = 0.1975<br/>samples = 9<br/>value = [8, 1]<br/>class = y<SUB>0</SUB>>, fillcolor="#e58139df"] ;
578 -> 579 ;
580 [label=<gini = 0.0<br/>samples = 8<br/>value = [8, 0]<br/>class = y<SUB>0</SUB>>, fillcolor="#e58139ff"] ;
579 -> 580 ;
581 [label=<gini = 0.0<br/>samples = 1<br/>value = [0, 1]<br/>class = y<SUB>1</SUB>>, fillcolor="#399de5ff"] ;
579 -> 581 ;
582 [label=<Satisfaction_Level &le; 0.725<br/>gini = 0.375<br/>samples = 4<br/>value = [1, 3]<br/>class = y<SUB>1</SUB>>, fillcolor="#399de5aa"] ;
578 -> 582 ;
583 [label=<gini = 0.0<br/>samples = 3<br/>value = [0, 3]<br/>class = y<SUB>1</SUB>>, fillcolor="#399de5ff"] ;
582 -> 583 ;
584 [label=<gini = 0.0<br/>samples = 1<br/>value = [1, 0]<br/>class = y<SUB>0</SUB>>, fillcolor="#e58139ff"] ;
582 -> 584 ;
585 [label=<gini = 0.0<br/>samples = 8<br/>value = [8, 0]<br/>class = y<SUB>0</SUB>>, fillcolor="#e58139ff"] ;
577 -> 585 ;
586 [label=<Average_Montly_Hours &le; 136.0<br/>gini = 0.074<br/>samples = 26<br/>value = [25, 1]<br/>class = y<SUB>0</SUB>>, fillcolor="#e58139f5"] ;
572 -> 586 ;
587 [label=<Average_Montly_Hours &le; 124.0<br/>gini = 0.4444<br/>samples = 3<br/>value = [2, 1]<br/>class = y<SUB>0</SUB>>, fillcolor="#e581397f"] ;
586 -> 587 ;
588 [label=<gini = 0.0<br/>samples = 2<br/>value = [2, 0]<br/>class = y<SUB>0</SUB>>, fillcolor="#e58139ff"] ;
587 -> 588 ;
589 [label=<gini = 0.0<br/>samples = 1<br/>value = [0, 1]<br/>class = y<SUB>1</SUB>>, fillcolor="#399de5ff"] ;
587 -> 589 ;
590 [label=<gini = 0.0<br/>samples = 23<br/>value = [23, 0]<br/>class = y<SUB>0</SUB>>, fillcolor="#e58139ff"] ;
586 -> 590 ;
591 [label=<Average_Montly_Hours &le; 178.5<br/>gini = 0.375<br/>samples = 4<br/>value = [1, 3]<br/>class = y<SUB>1</SUB>>, fillcolor="#399de5aa"] ;
571 -> 591 ;
592 [label=<gini = 0.0<br/>samples = 3<br/>value = [0, 3]<br/>class = y<SUB>1</SUB>>, fillcolor="#399de5ff"] ;
591 -> 592 ;
593 [label=<gini = 0.0<br/>samples = 1<br/>value = [1, 0]<br/>class = y<SUB>0</SUB>>, fillcolor="#e58139ff"] ;
591 -> 593 ;
594 [label=<gini = 0.0<br/>samples = 19<br/>value = [19, 0]<br/>class = y<SUB>0</SUB>>, fillcolor="#e58139ff"] ;
570 -> 594 ;
595 [label=<Satisfaction_Level &le; 0.88<br/>gini = 0.4444<br/>samples = 3<br/>value = [1, 2]<br/>class = y<SUB>1</SUB>>, fillcolor="#399de57f"] ;
569 -> 595 ;
596 [label=<gini = 0.0<br/>samples = 2<br/>value = [0, 2]<br/>class = y<SUB>1</SUB>>, fillcolor="#399de5ff"] ;
595 -> 596 ;
597 [label=<gini = 0.0<br/>samples = 1<br/>value = [1, 0]<br/>class = y<SUB>0</SUB>>, fillcolor="#e58139ff"] ;
595 -> 597 ;
598 [label=<gini = 0.0<br/>samples = 4<br/>value = [0, 4]<br/>class = y<SUB>1</SUB>>, fillcolor="#399de5ff"] ;
256 -> 598 ;
599 [label=<gini = 0.0<br/>samples = 9<br/>value = [0, 9]<br/>class = y<SUB>1</SUB>>, fillcolor="#399de5ff"] ;
255 -> 599 ;
600 [label=<Last_Evaluation &le; 0.805<br/>gini = 0.4968<br/>samples = 1982<br/>value = [1070, 912]<br/>class = y<SUB>0</SUB>>, fillcolor="#e5813926"] ;
254 -> 600 ;
601 [label=<Average_Montly_Hours &le; 272.5<br/>gini = 0.0767<br/>samples = 751<br/>value = [721, 30]<br/>class = y<SUB>0</SUB>>, fillcolor="#e58139f4"] ;
600 -> 601 ;
602 [label=<Number_Projects &le; 6.5<br/>gini = 0.0572<br/>samples = 712<br/>value = [691, 21]<br/>class = y<SUB>0</SUB>>, fillcolor="#e58139f7"] ;
601 -> 602 ;
603 [label=<Time_Spend_Company &le; 5.5<br/>gini = 0.0547<br/>samples = 711<br/>value = [691, 20]<br/>class = y<SUB>0</SUB>>, fillcolor="#e58139f8"] ;
602 -> 603 ;
604 [label=<Salary &le; 1.5<br/>gini = 0.131<br/>samples = 227<br/>value = [211, 16]<br/>class = y<SUB>0</SUB>>, fillcolor="#e58139ec"] ;
603 -> 604 ;
605 [label=<Average_Montly_Hours &le; 152.5<br/>gini = 0.0937<br/>samples = 203<br/>value = [193, 10]<br/>class = y<SUB>0</SUB>>, fillcolor="#e58139f2"] ;
604 -> 605 ;
606 [label=<gini = 0.0<br/>samples = 65<br/>value = [65, 0]<br/>class = y<SUB>0</SUB>>, fillcolor="#e58139ff"] ;
605 -> 606 ;
607 [label=<Average_Montly_Hours &le; 154.0<br/>gini = 0.1344<br/>samples = 138<br/>value = [128, 10]<br/>class = y<SUB>0</SUB>>, fillcolor="#e58139eb"] ;
605 -> 607 ;
608 [label=<gini = 0.0<br/>samples = 2<br/>value = [0, 2]<br/>class = y<SUB>1</SUB>>, fillcolor="#399de5ff"] ;
607 -> 608 ;
609 [label=<Department &le; 1.5<br/>gini = 0.1107<br/>samples = 136<br/>value = [128, 8]<br/>class = y<SUB>0</SUB>>, fillcolor="#e58139ef"] ;
607 -> 609 ;
610 [label=<gini = 0.0<br/>samples = 55<br/>value = [55, 0]<br/>class = y<SUB>0</SUB>>, fillcolor="#e58139ff"] ;
609 -> 610 ;
611 [label=<Number_Projects &le; 2.5<br/>gini = 0.178<br/>samples = 81<br/>value = [73, 8]<br/>class = y<SUB>0</SUB>>, fillcolor="#e58139e3"] ;
609 -> 611 ;
612 [label=<gini = 0.0<br/>samples = 18<br/>value = [18, 0]<br/>class = y<SUB>0</SUB>>, fillcolor="#e58139ff"] ;
611 -> 612 ;
613 [label=<Number_Projects &le; 3.5<br/>gini = 0.2217<br/>samples = 63<br/>value = [55, 8]<br/>class = y<SUB>0</SUB>>, fillcolor="#e58139da"] ;
611 -> 613 ;
614 [label=<Satisfaction_Level &le; 0.77<br/>gini = 0.375<br/>samples = 16<br/>value = [12, 4]<br/>class = y<SUB>0</SUB>>, fillcolor="#e58139aa"] ;
613 -> 614 ;
615 [label=<Last_Evaluation &le; 0.545<br/>gini = 0.18<br/>samples = 10<br/>value = [9, 1]<br/>class = y<SUB>0</SUB>>, fillcolor="#e58139e3"] ;
614 -> 615 ;
616 [label=<Last_Evaluation &le; 0.475<br/>gini = 0.5<br/>samples = 2<br/>value = [1, 1]<br/>class = y<SUB>0</SUB>>, fillcolor="#e5813900"] ;
615 -> 616 ;
617 [label=<gini = 0.0<br/>samples = 1<br/>value = [1, 0]<br/>class = y<SUB>0</SUB>>, fillcolor="#e58139ff"] ;
616 -> 617 ;
618 [label=<gini = 0.0<br/>samples = 1<br/>value = [0, 1]<br/>class = y<SUB>1</SUB>>, fillcolor="#399de5ff"] ;
616 -> 618 ;
619 [label=<gini = 0.0<br/>samples = 8<br/>value = [8, 0]<br/>class = y<SUB>0</SUB>>, fillcolor="#e58139ff"] ;
615 -> 619 ;
620 [label=<Department &le; 4.0<br/>gini = 0.5<br/>samples = 6<br/>value = [3, 3]<br/>class = y<SUB>0</SUB>>, fillcolor="#e5813900"] ;
614 -> 620 ;
621 [label=<gini = 0.0<br/>samples = 3<br/>value = [3, 0]<br/>class = y<SUB>0</SUB>>, fillcolor="#e58139ff"] ;
620 -> 621 ;
622 [label=<gini = 0.0<br/>samples = 3<br/>value = [0, 3]<br/>class = y<SUB>1</SUB>>, fillcolor="#399de5ff"] ;
620 -> 622 ;
623 [label=<Last_Evaluation &le; 0.605<br/>gini = 0.1557<br/>samples = 47<br/>value = [43, 4]<br/>class = y<SUB>0</SUB>>, fillcolor="#e58139e7"] ;
613 -> 623 ;
624 [label=<gini = 0.0<br/>samples = 21<br/>value = [21, 0]<br/>class = y<SUB>0</SUB>>, fillcolor="#e58139ff"] ;
623 -> 624 ;
625 [label=<Last_Evaluation &le; 0.635<br/>gini = 0.2604<br/>samples = 26<br/>value = [22, 4]<br/>class = y<SUB>0</SUB>>, fillcolor="#e58139d1"] ;
623 -> 625 ;
626 [label=<Average_Montly_Hours &le; 226.0<br/>gini = 0.48<br/>samples = 5<br/>value = [2, 3]<br/>class = y<SUB>1</SUB>>, fillcolor="#399de555"] ;
625 -> 626 ;
627 [label=<gini = 0.0<br/>samples = 3<br/>value = [0, 3]<br/>class = y<SUB>1</SUB>>, fillcolor="#399de5ff"] ;
626 -> 627 ;
628 [label=<gini = 0.0<br/>samples = 2<br/>value = [2, 0]<br/>class = y<SUB>0</SUB>>, fillcolor="#e58139ff"] ;
626 -> 628 ;
629 [label=<Average_Montly_Hours &le; 255.0<br/>gini = 0.0907<br/>samples = 21<br/>value = [20, 1]<br/>class = y<SUB>0</SUB>>, fillcolor="#e58139f2"] ;
625 -> 629 ;
630 [label=<gini = 0.0<br/>samples = 18<br/>value = [18, 0]<br/>class = y<SUB>0</SUB>>, fillcolor="#e58139ff"] ;
629 -> 630 ;
631 [label=<Last_Evaluation &le; 0.765<br/>gini = 0.4444<br/>samples = 3<br/>value = [2, 1]<br/>class = y<SUB>0</SUB>>, fillcolor="#e581397f"] ;
629 -> 631 ;
632 [label=<gini = 0.0<br/>samples = 2<br/>value = [2, 0]<br/>class = y<SUB>0</SUB>>, fillcolor="#e58139ff"] ;
631 -> 632 ;
633 [label=<gini = 0.0<br/>samples = 1<br/>value = [0, 1]<br/>class = y<SUB>1</SUB>>, fillcolor="#399de5ff"] ;
631 -> 633 ;
634 [label=<Average_Montly_Hours &le; 241.0<br/>gini = 0.375<br/>samples = 24<br/>value = [18, 6]<br/>class = y<SUB>0</SUB>>, fillcolor="#e58139aa"] ;
604 -> 634 ;
635 [label=<Satisfaction_Level &le; 0.68<br/>gini = 0.2449<br/>samples = 21<br/>value = [18, 3]<br/>class = y<SUB>0</SUB>>, fillcolor="#e58139d4"] ;
634 -> 635 ;
636 [label=<Satisfaction_Level &le; 0.615<br/>gini = 0.4898<br/>samples = 7<br/>value = [4, 3]<br/>class = y<SUB>0</SUB>>, fillcolor="#e5813940"] ;
635 -> 636 ;
637 [label=<gini = 0.0<br/>samples = 4<br/>value = [4, 0]<br/>class = y<SUB>0</SUB>>, fillcolor="#e58139ff"] ;
636 -> 637 ;
638 [label=<gini = 0.0<br/>samples = 3<br/>value = [0, 3]<br/>class = y<SUB>1</SUB>>, fillcolor="#399de5ff"] ;
636 -> 638 ;
639 [label=<gini = 0.0<br/>samples = 14<br/>value = [14, 0]<br/>class = y<SUB>0</SUB>>, fillcolor="#e58139ff"] ;
635 -> 639 ;
640 [label=<gini = 0.0<br/>samples = 3<br/>value = [0, 3]<br/>class = y<SUB>1</SUB>>, fillcolor="#399de5ff"] ;
634 -> 640 ;
641 [label=<Number_Projects &le; 4.5<br/>gini = 0.0164<br/>samples = 484<br/>value = [480, 4]<br/>class = y<SUB>0</SUB>>, fillcolor="#e58139fd"] ;
603 -> 641 ;
642 [label=<gini = 0.0<br/>samples = 360<br/>value = [360, 0]<br/>class = y<SUB>0</SUB>>, fillcolor="#e58139ff"] ;
641 -> 642 ;
643 [label=<Average_Montly_Hours &le; 197.0<br/>gini = 0.0624<br/>samples = 124<br/>value = [120, 4]<br/>class = y<SUB>0</SUB>>, fillcolor="#e58139f6"] ;
641 -> 643 ;
644 [label=<Average_Montly_Hours &le; 194.5<br/>gini = 0.1653<br/>samples = 44<br/>value = [40, 4]<br/>class = y<SUB>0</SUB>>, fillcolor="#e58139e6"] ;
643 -> 644 ;
645 [label=<Last_Evaluation &le; 0.755<br/>gini = 0.0476<br/>samples = 41<br/>value = [40, 1]<br/>class = y<SUB>0</SUB>>, fillcolor="#e58139f9"] ;
644 -> 645 ;
646 [label=<gini = 0.0<br/>samples = 36<br/>value = [36, 0]<br/>class = y<SUB>0</SUB>>, fillcolor="#e58139ff"] ;
645 -> 646 ;
647 [label=<Time_Spend_Company &le; 7.0<br/>gini = 0.32<br/>samples = 5<br/>value = [4, 1]<br/>class = y<SUB>0</SUB>>, fillcolor="#e58139bf"] ;
645 -> 647 ;
648 [label=<gini = 0.0<br/>samples = 1<br/>value = [0, 1]<br/>class = y<SUB>1</SUB>>, fillcolor="#399de5ff"] ;
647 -> 648 ;
649 [label=<gini = 0.0<br/>samples = 4<br/>value = [4, 0]<br/>class = y<SUB>0</SUB>>, fillcolor="#e58139ff"] ;
647 -> 649 ;
650 [label=<gini = 0.0<br/>samples = 3<br/>value = [0, 3]<br/>class = y<SUB>1</SUB>>, fillcolor="#399de5ff"] ;
644 -> 650 ;
651 [label=<gini = 0.0<br/>samples = 80<br/>value = [80, 0]<br/>class = y<SUB>0</SUB>>, fillcolor="#e58139ff"] ;
643 -> 651 ;
652 [label=<gini = 0.0<br/>samples = 1<br/>value = [0, 1]<br/>class = y<SUB>1</SUB>>, fillcolor="#399de5ff"] ;
602 -> 652 ;
653 [label=<Satisfaction_Level &le; 0.575<br/>gini = 0.355<br/>samples = 39<br/>value = [30, 9]<br/>class = y<SUB>0</SUB>>, fillcolor="#e58139b3"] ;
601 -> 653 ;
654 [label=<Satisfaction_Level &le; 0.515<br/>gini = 0.4986<br/>samples = 19<br/>value = [10, 9]<br/>class = y<SUB>0</SUB>>, fillcolor="#e5813919"] ;
653 -> 654 ;
655 [label=<gini = 0.0<br/>samples = 7<br/>value = [7, 0]<br/>class = y<SUB>0</SUB>>, fillcolor="#e58139ff"] ;
654 -> 655 ;
656 [label=<Number_Projects &le; 4.5<br/>gini = 0.375<br/>samples = 12<br/>value = [3, 9]<br/>class = y<SUB>1</SUB>>, fillcolor="#399de5aa"] ;
654 -> 656 ;
657 [label=<Average_Montly_Hours &le; 281.5<br/>gini = 0.18<br/>samples = 10<br/>value = [1, 9]<br/>class = y<SUB>1</SUB>>, fillcolor="#399de5e3"] ;
656 -> 657 ;
658 [label=<gini = 0.0<br/>samples = 9<br/>value = [0, 9]<br/>class = y<SUB>1</SUB>>, fillcolor="#399de5ff"] ;
657 -> 658 ;
659 [label=<gini = 0.0<br/>samples = 1<br/>value = [1, 0]<br/>class = y<SUB>0</SUB>>, fillcolor="#e58139ff"] ;
657 -> 659 ;
660 [label=<gini = 0.0<br/>samples = 2<br/>value = [2, 0]<br/>class = y<SUB>0</SUB>>, fillcolor="#e58139ff"] ;
656 -> 660 ;
661 [label=<gini = 0.0<br/>samples = 20<br/>value = [20, 0]<br/>class = y<SUB>0</SUB>>, fillcolor="#e58139ff"] ;
653 -> 661 ;
662 [label=<Average_Montly_Hours &le; 216.5<br/>gini = 0.4063<br/>samples = 1231<br/>value = [349, 882]<br/>class = y<SUB>1</SUB>>, fillcolor="#399de59a"] ;
600 -> 662 ;
663 [label=<Last_Evaluation &le; 0.995<br/>gini = 0.1588<br/>samples = 230<br/>value = [210, 20]<br/>class = y<SUB>0</SUB>>, fillcolor="#e58139e7"] ;
662 -> 663 ;
664 [label=<Time_Spend_Company &le; 5.5<br/>gini = 0.1177<br/>samples = 223<br/>value = [209, 14]<br/>class = y<SUB>0</SUB>>, fillcolor="#e58139ee"] ;
663 -> 664 ;
665 [label=<Number_Projects &le; 3.5<br/>gini = 0.3163<br/>samples = 66<br/>value = [53, 13]<br/>class = y<SUB>0</SUB>>, fillcolor="#e58139c0"] ;
664 -> 665 ;
666 [label=<Average_Montly_Hours &le; 157.0<br/>gini = 0.4938<br/>samples = 27<br/>value = [15, 12]<br/>class = y<SUB>0</SUB>>, fillcolor="#e5813933"] ;
665 -> 666 ;
667 [label=<Department &le; 6.5<br/>gini = 0.1528<br/>samples = 12<br/>value = [11, 1]<br/>class = y<SUB>0</SUB>>, fillcolor="#e58139e8"] ;
666 -> 667 ;
668 [label=<gini = 0.0<br/>samples = 10<br/>value = [10, 0]<br/>class = y<SUB>0</SUB>>, fillcolor="#e58139ff"] ;
667 -> 668 ;
669 [label=<Satisfaction_Level &le; 0.705<br/>gini = 0.5<br/>samples = 2<br/>value = [1, 1]<br/>class = y<SUB>0</SUB>>, fillcolor="#e5813900"] ;
667 -> 669 ;
670 [label=<gini = 0.0<br/>samples = 1<br/>value = [1, 0]<br/>class = y<SUB>0</SUB>>, fillcolor="#e58139ff"] ;
669 -> 670 ;
671 [label=<gini = 0.0<br/>samples = 1<br/>value = [0, 1]<br/>class = y<SUB>1</SUB>>, fillcolor="#399de5ff"] ;
669 -> 671 ;
672 [label=<Average_Montly_Hours &le; 185.5<br/>gini = 0.3911<br/>samples = 15<br/>value = [4, 11]<br/>class = y<SUB>1</SUB>>, fillcolor="#399de5a2"] ;
666 -> 672 ;
673 [label=<Last_Evaluation &le; 0.885<br/>gini = 0.1528<br/>samples = 12<br/>value = [1, 11]<br/>class = y<SUB>1</SUB>>, fillcolor="#399de5e8"] ;
672 -> 673 ;
674 [label=<Average_Montly_Hours &le; 165.0<br/>gini = 0.375<br/>samples = 4<br/>value = [1, 3]<br/>class = y<SUB>1</SUB>>, fillcolor="#399de5aa"] ;
673 -> 674 ;
675 [label=<gini = 0.0<br/>samples = 3<br/>value = [0, 3]<br/>class = y<SUB>1</SUB>>, fillcolor="#399de5ff"] ;
674 -> 675 ;
676 [label=<gini = 0.0<br/>samples = 1<br/>value = [1, 0]<br/>class = y<SUB>0</SUB>>, fillcolor="#e58139ff"] ;
674 -> 676 ;
677 [label=<gini = 0.0<br/>samples = 8<br/>value = [0, 8]<br/>class = y<SUB>1</SUB>>, fillcolor="#399de5ff"] ;
673 -> 677 ;
678 [label=<gini = 0.0<br/>samples = 3<br/>value = [3, 0]<br/>class = y<SUB>0</SUB>>, fillcolor="#e58139ff"] ;
672 -> 678 ;
679 [label=<Average_Montly_Hours &le; 205.5<br/>gini = 0.05<br/>samples = 39<br/>value = [38, 1]<br/>class = y<SUB>0</SUB>>, fillcolor="#e58139f8"] ;
665 -> 679 ;
680 [label=<gini = 0.0<br/>samples = 37<br/>value = [37, 0]<br/>class = y<SUB>0</SUB>>, fillcolor="#e58139ff"] ;
679 -> 680 ;
681 [label=<Department &le; 0.5<br/>gini = 0.5<br/>samples = 2<br/>value = [1, 1]<br/>class = y<SUB>0</SUB>>, fillcolor="#e5813900"] ;
679 -> 681 ;
682 [label=<gini = 0.0<br/>samples = 1<br/>value = [0, 1]<br/>class = y<SUB>1</SUB>>, fillcolor="#399de5ff"] ;
681 -> 682 ;
683 [label=<gini = 0.0<br/>samples = 1<br/>value = [1, 0]<br/>class = y<SUB>0</SUB>>, fillcolor="#e58139ff"] ;
681 -> 683 ;
684 [label=<Number_Projects &le; 5.5<br/>gini = 0.0127<br/>samples = 157<br/>value = [156, 1]<br/>class = y<SUB>0</SUB>>, fillcolor="#e58139fd"] ;
664 -> 684 ;
685 [label=<gini = 0.0<br/>samples = 149<br/>value = [149, 0]<br/>class = y<SUB>0</SUB>>, fillcolor="#e58139ff"] ;
684 -> 685 ;
686 [label=<Last_Evaluation &le; 0.845<br/>gini = 0.2188<br/>samples = 8<br/>value = [7, 1]<br/>class = y<SUB>0</SUB>>, fillcolor="#e58139db"] ;
684 -> 686 ;
687 [label=<gini = 0.0<br/>samples = 1<br/>value = [0, 1]<br/>class = y<SUB>1</SUB>>, fillcolor="#399de5ff"] ;
686 -> 687 ;
688 [label=<gini = 0.0<br/>samples = 7<br/>value = [7, 0]<br/>class = y<SUB>0</SUB>>, fillcolor="#e58139ff"] ;
686 -> 688 ;
689 [label=<Satisfaction_Level &le; 0.825<br/>gini = 0.2449<br/>samples = 7<br/>value = [1, 6]<br/>class = y<SUB>1</SUB>>, fillcolor="#399de5d4"] ;
663 -> 689 ;
690 [label=<gini = 0.0<br/>samples = 6<br/>value = [0, 6]<br/>class = y<SUB>1</SUB>>, fillcolor="#399de5ff"] ;
689 -> 690 ;
691 [label=<gini = 0.0<br/>samples = 1<br/>value = [1, 0]<br/>class = y<SUB>0</SUB>>, fillcolor="#e58139ff"] ;
689 -> 691 ;
692 [label=<Time_Spend_Company &le; 6.5<br/>gini = 0.2392<br/>samples = 1001<br/>value = [139, 862]<br/>class = y<SUB>1</SUB>>, fillcolor="#399de5d6"] ;
662 -> 692 ;
693 [label=<Satisfaction_Level &le; 0.715<br/>gini = 0.1538<br/>samples = 941<br/>value = [79, 862]<br/>class = y<SUB>1</SUB>>, fillcolor="#399de5e8"] ;
692 -> 693 ;
694 [label=<Last_Evaluation &le; 0.915<br/>gini = 0.3639<br/>samples = 46<br/>value = [35, 11]<br/>class = y<SUB>0</SUB>>, fillcolor="#e58139af"] ;
693 -> 694 ;
695 [label=<Number_Projects &le; 5.5<br/>gini = 0.074<br/>samples = 26<br/>value = [25, 1]<br/>class = y<SUB>0</SUB>>, fillcolor="#e58139f5"] ;
694 -> 695 ;
696 [label=<gini = 0.0<br/>samples = 21<br/>value = [21, 0]<br/>class = y<SUB>0</SUB>>, fillcolor="#e58139ff"] ;
695 -> 696 ;
697 [label=<Time_Spend_Company &le; 5.5<br/>gini = 0.32<br/>samples = 5<br/>value = [4, 1]<br/>class = y<SUB>0</SUB>>, fillcolor="#e58139bf"] ;
695 -> 697 ;
698 [label=<gini = 0.0<br/>samples = 1<br/>value = [0, 1]<br/>class = y<SUB>1</SUB>>, fillcolor="#399de5ff"] ;
697 -> 698 ;
699 [label=<gini = 0.0<br/>samples = 4<br/>value = [4, 0]<br/>class = y<SUB>0</SUB>>, fillcolor="#e58139ff"] ;
697 -> 699 ;
